<?xml version="1.0"?>
<opencv_storage>
<cascade>
  <stageType>BOOST</stageType>
  <featureType>HAAR</featureType>
  <height>20</height>
  <width>20</width>
  <stageParams>
    <boostType>GAB</boostType>
    <minHitRate>9.9500000476837158e-01</minHitRate>
    <maxFalseAlarm>5.0000000000000000e-01</maxFalseAlarm>
    <weightTrimRate>9.4999999999999996e-01</weightTrimRate>
    <maxDepth>1</maxDepth>
    <maxWeakCount>100</maxWeakCount></stageParams>
  <featureParams>
    <maxCatCount>0</maxCatCount>
    <featSize>1</featSize>
    <mode>BASIC</mode></featureParams>
  <stageNum>5</stageNum>
  <stages>
    <!-- stage 0 -->
    <_>
      <maxWeakCount>30</maxWeakCount>
      <stageThreshold>-7.6498723030090332e-01</stageThreshold>
      <weakClassifiers>
        <_>
          <internalNodes>
            0 -1 106 1.7483241856098175e-02</internalNodes>
          <leafValues>
            -2.9756536707282066e-02 6.8624013662338257e-01</leafValues></_>
        <_>
          <internalNodes>
            0 -1 131 3.2828401308506727e-03</internalNodes>
          <leafValues>
            -1.1175569146871567e-01 5.7292348146438599e-01</leafValues></_>
        <_>
          <internalNodes>
            0 -1 17 -2.2558378987014294e-03</internalNodes>
          <leafValues>
            3.9367270469665527e-01 -1.8369121849536896e-01</leafValues></_>
        <_>
          <internalNodes>
            0 -1 110 -2.3053551558405161e-03</internalNodes>
          <leafValues>
            3.7548515200614929e-01 -1.9923187792301178e-01</leafValues></_>
        <_>
          <internalNodes>
            0 -1 235 -6.1969603411853313e-03</internalNodes>
          <leafValues>
            3.5936346650123596e-01 -1.5433152019977570e-01</leafValues></_>
        <_>
          <internalNodes>
            0 -1 23 -5.2213051822036505e-04</internalNodes>
          <leafValues>
            3.1538647413253784e-01 -1.6938775777816772e-01</leafValues></_>
        <_>
          <internalNodes>
            0 -1 27 1.1195320403203368e-03</internalNodes>
          <leafValues>
            -1.7366848886013031e-01 3.2207480072975159e-01</leafValues></_>
        <_>
          <internalNodes>
            0 -1 133 -8.1796981394290924e-03</internalNodes>
          <leafValues>
            3.5690852999687195e-01 -1.4074842631816864e-01</leafValues></_>
        <_>
          <internalNodes>
            0 -1 111 -9.8323088604956865e-04</internalNodes>
          <leafValues>
            2.6875787973403931e-01 -1.5882128477096558e-01</leafValues></_>
        <_>
          <internalNodes>
            0 -1 173 -1.4005128759890795e-03</internalNodes>
          <leafValues>
            3.0643984675407410e-01 -1.3462097942829132e-01</leafValues></_>
        <_>
          <internalNodes>
            0 -1 158 1.0640481486916542e-02</internalNodes>
          <leafValues>
            6.7045509815216064e-02 -6.8842923641204834e-01</leafValues></_>
        <_>
          <internalNodes>
            0 -1 146 -5.3461693227291107e-02</internalNodes>
          <leafValues>
            2.5594851374626160e-01 -1.4578314125537872e-01</leafValues></_>
        <_>
          <internalNodes>
            0 -1 4 -3.5742325708270073e-03</internalNodes>
          <leafValues>
            2.9084438085556030e-01 -1.0947626829147339e-01</leafValues></_>
        <_>
          <internalNodes>
            0 -1 19 8.4870337741449475e-04</internalNodes>
          <leafValues>
            -1.3417118787765503e-01 2.6952597498893738e-01</leafValues></_>
        <_>
          <internalNodes>
            0 -1 180 7.8609008342027664e-03</internalNodes>
          <leafValues>
            5.1196955144405365e-02 -7.3499411344528198e-01</leafValues></_>
        <_>
          <internalNodes>
            0 -1 49 -1.9320316612720490e-02</internalNodes>
          <leafValues>
            5.6131690740585327e-01 -6.5254166722297668e-02</leafValues></_>
        <_>
          <internalNodes>
            0 -1 78 1.3235101476311684e-02</internalNodes>
          <leafValues>
            -5.6942176073789597e-02 5.6878691911697388e-01</leafValues></_>
        <_>
          <internalNodes>
            0 -1 44 -6.3357232138514519e-03</internalNodes>
          <leafValues>
            -8.3357954025268555e-01 4.9966529011726379e-02</leafValues></_>
        <_>
          <internalNodes>
            0 -1 197 -4.0163481608033180e-03</internalNodes>
          <leafValues>
            2.9376018047332764e-01 -1.4684517681598663e-01</leafValues></_>
        <_>
          <internalNodes>
            0 -1 254 -5.5961683392524719e-03</internalNodes>
          <leafValues>
            -6.7075210809707642e-01 4.7485101968050003e-02</leafValues></_>
        <_>
          <internalNodes>
            0 -1 82 -1.3229430653154850e-02</internalNodes>
          <leafValues>
            2.8295969963073730e-01 -1.1130805313587189e-01</leafValues></_>
        <_>
          <internalNodes>
            0 -1 252 -1.3978129252791405e-02</internalNodes>
          <leafValues>
            4.7070425748825073e-01 -6.1885837465524673e-02</leafValues></_>
        <_>
          <internalNodes>
            0 -1 242 1.4412162825465202e-02</internalNodes>
          <leafValues>
            -9.3902774155139923e-02 3.2875522971153259e-01</leafValues></_>
        <_>
          <internalNodes>
            0 -1 98 -1.9055809825658798e-02</internalNodes>
          <leafValues>
            -4.2772772908210754e-01 7.6949417591094971e-02</leafValues></_>
        <_>
          <internalNodes>
            0 -1 174 -1.2758166994899511e-03</internalNodes>
          <leafValues>
            3.3366116881370544e-01 -1.1862125992774963e-01</leafValues></_>
        <_>
          <internalNodes>
            0 -1 39 -2.5615509599447250e-02</internalNodes>
          <leafValues>
            4.3065458536148071e-01 -6.9021910429000854e-02</leafValues></_>
        <_>
          <internalNodes>
            0 -1 31 -7.9103410243988037e-03</internalNodes>
          <leafValues>
            -7.3290616273880005e-01 4.7018479555845261e-02</leafValues></_>
        <_>
          <internalNodes>
            0 -1 169 9.4674323918297887e-04</internalNodes>
          <leafValues>
            -1.5293268859386444e-01 1.9804120063781738e-01</leafValues></_>
        <_>
          <internalNodes>
            0 -1 142 3.0901048332452774e-02</internalNodes>
          <leafValues>
            -5.6208569556474686e-02 4.8569151759147644e-01</leafValues></_>
        <_>
          <internalNodes>
            0 -1 165 -4.9426713958382607e-03</internalNodes>
          <leafValues>
            -4.7175130248069763e-01 6.9249674677848816e-02</leafValues></_></weakClassifiers></_>
    <!-- stage 1 -->
    <_>
      <maxWeakCount>46</maxWeakCount>
      <stageThreshold>-6.6237485408782959e-01</stageThreshold>
      <weakClassifiers>
        <_>
          <internalNodes>
            0 -1 93 2.3301504552364349e-02</internalNodes>
          <leafValues>
            7.9460270702838898e-02 7.0305675268173218e-01</leafValues></_>
        <_>
          <internalNodes>
            0 -1 77 -6.6217584535479546e-03</internalNodes>
          <leafValues>
            5.2820646762847900e-01 -7.0275232195854187e-02</leafValues></_>
        <_>
          <internalNodes>
            0 -1 24 -2.2010337561368942e-03</internalNodes>
          <leafValues>
            3.0831968784332275e-01 -1.7875634133815765e-01</leafValues></_>
        <_>
          <internalNodes>
            0 -1 116 1.7221269663423300e-03</internalNodes>
          <leafValues>
            -1.3169753551483154e-01 3.0903828144073486e-01</leafValues></_>
        <_>
          <internalNodes>
            0 -1 129 -2.9025783296674490e-03</internalNodes>
          <leafValues>
            4.1720369458198547e-01 -7.5712874531745911e-02</leafValues></_>
        <_>
          <internalNodes>
            0 -1 136 -4.9335230141878128e-03</internalNodes>
          <leafValues>
            -4.6905264258384705e-01 8.8078364729881287e-02</leafValues></_>
        <_>
          <internalNodes>
            0 -1 218 -8.4903016686439514e-03</internalNodes>
          <leafValues>
            3.0863964557647705e-01 -1.2102264165878296e-01</leafValues></_>
        <_>
          <internalNodes>
            0 -1 56 4.1720170527696609e-02</internalNodes>
          <leafValues>
            -1.1146353930234909e-01 3.1702402234077454e-01</leafValues></_>
        <_>
          <internalNodes>
            0 -1 9 -3.9535649120807648e-03</internalNodes>
          <leafValues>
            1.8125386536121368e-01 -1.6250215470790863e-01</leafValues></_>
        <_>
          <internalNodes>
            0 -1 191 2.2033965215086937e-03</internalNodes>
          <leafValues>
            7.8283987939357758e-02 -3.6118054389953613e-01</leafValues></_>
        <_>
          <internalNodes>
            0 -1 5 9.2666279524564743e-03</internalNodes>
          <leafValues>
            -1.3089194893836975e-01 2.1574880182743073e-01</leafValues></_>
        <_>
          <internalNodes>
            0 -1 209 -9.2133684083819389e-03</internalNodes>
          <leafValues>
            2.6842331886291504e-01 -1.0723032057285309e-01</leafValues></_>
        <_>
          <internalNodes>
            0 -1 177 -6.3030337914824486e-03</internalNodes>
          <leafValues>
            3.2347130775451660e-01 -9.4352640211582184e-02</leafValues></_>
        <_>
          <internalNodes>
            0 -1 251 6.4647677354514599e-03</internalNodes>
          <leafValues>
            -1.2087041139602661e-01 2.9156926274299622e-01</leafValues></_>
        <_>
          <internalNodes>
            0 -1 189 -3.3018633723258972e-02</internalNodes>
          <leafValues>
            3.6964055895805359e-01 -7.8333415091037750e-02</leafValues></_>
        <_>
          <internalNodes>
            0 -1 136 1.1767052114009857e-02</internalNodes>
          <leafValues>
            3.5812027752399445e-02 -8.4180545806884766e-01</leafValues></_>
        <_>
          <internalNodes>
            0 -1 145 -1.5949638560414314e-02</internalNodes>
          <leafValues>
            3.7208700180053711e-01 -7.9648777842521667e-02</leafValues></_>
        <_>
          <internalNodes>
            0 -1 126 -1.6675355145707726e-03</internalNodes>
          <leafValues>
            2.5422194600105286e-01 -8.8341057300567627e-02</leafValues></_>
        <_>
          <internalNodes>
            0 -1 91 -1.1058889329433441e-01</internalNodes>
          <leafValues>
            3.1924757361412048e-01 -8.3842925727367401e-02</leafValues></_>
        <_>
          <internalNodes>
            0 -1 43 1.1270742863416672e-02</internalNodes>
          <leafValues>
            -1.1079333722591400e-01 2.1297499537467957e-01</leafValues></_>
        <_>
          <internalNodes>
            0 -1 138 -2.0042475312948227e-02</internalNodes>
          <leafValues>
            -5.7211220264434814e-01 4.2571745812892914e-02</leafValues></_>
        <_>
          <internalNodes>
            0 -1 185 -1.8539249897003174e-02</internalNodes>
          <leafValues>
            5.1217657327651978e-01 -5.1851954311132431e-02</leafValues></_>
        <_>
          <internalNodes>
            0 -1 239 -2.0936187356710434e-03</internalNodes>
          <leafValues>
            -3.7579339742660522e-01 7.1149729192256927e-02</leafValues></_>
        <_>
          <internalNodes>
            0 -1 60 3.2060507219284773e-03</internalNodes>
          <leafValues>
            -7.6363794505596161e-02 3.4064269065856934e-01</leafValues></_>
        <_>
          <internalNodes>
            0 -1 48 -7.1691432967782021e-03</internalNodes>
          <leafValues>
            2.6309356093406677e-01 -9.2580102384090424e-02</leafValues></_>
        <_>
          <internalNodes>
            0 -1 2 3.2431811559945345e-03</internalNodes>
          <leafValues>
            -1.1469434201717377e-01 2.2250443696975708e-01</leafValues></_>
        <_>
          <internalNodes>
            0 -1 13 5.7710940018296242e-03</internalNodes>
          <leafValues>
            2.7306770905852318e-02 -8.3818936347961426e-01</leafValues></_>
        <_>
          <internalNodes>
            0 -1 234 8.5828057490289211e-04</internalNodes>
          <leafValues>
            -9.9054455757141113e-02 2.4139697849750519e-01</leafValues></_>
        <_>
          <internalNodes>
            0 -1 33 -2.0271735265851021e-03</internalNodes>
          <leafValues>
            1.9897015392780304e-01 -1.1207263916730881e-01</leafValues></_>
        <_>
          <internalNodes>
            0 -1 75 1.9575759768486023e-02</internalNodes>
          <leafValues>
            -7.2125017642974854e-02 2.9372194409370422e-01</leafValues></_>
        <_>
          <internalNodes>
            0 -1 161 1.1376768350601196e-02</internalNodes>
          <leafValues>
            4.4826839119195938e-02 -5.6912392377853394e-01</leafValues></_>
        <_>
          <internalNodes>
            0 -1 170 4.4711614027619362e-03</internalNodes>
          <leafValues>
            3.1746212393045425e-02 -7.1329551935195923e-01</leafValues></_>
        <_>
          <internalNodes>
            0 -1 247 7.0390604378189892e-05</internalNodes>
          <leafValues>
            -1.4903800189495087e-01 1.6147266328334808e-01</leafValues></_>
        <_>
          <internalNodes>
            0 -1 202 6.5107806585729122e-03</internalNodes>
          <leafValues>
            6.6757559776306152e-02 -3.7122413516044617e-01</leafValues></_>
        <_>
          <internalNodes>
            0 -1 205 1.1370738502591848e-03</internalNodes>
          <leafValues>
            -1.1059945821762085e-01 2.3280265927314758e-01</leafValues></_>
        <_>
          <internalNodes>
            0 -1 94 -2.3017369676381350e-03</internalNodes>
          <leafValues>
            2.7407136559486389e-01 -8.3561763167381287e-02</leafValues></_>
        <_>
          <internalNodes>
            0 -1 81 -3.4452276304364204e-03</internalNodes>
          <leafValues>
            1.7317196726799011e-01 -1.3479408621788025e-01</leafValues></_>
        <_>
          <internalNodes>
            0 -1 115 -3.4622885286808014e-03</internalNodes>
          <leafValues>
            -4.3903252482414246e-01 5.7064622640609741e-02</leafValues></_>
        <_>
          <internalNodes>
            0 -1 168 7.0669114589691162e-02</internalNodes>
          <leafValues>
            -2.9951488599181175e-02 9.2529922723770142e-01</leafValues></_>
        <_>
          <internalNodes>
            0 -1 156 1.3467869721353054e-02</internalNodes>
          <leafValues>
            4.8675879836082458e-02 -5.8716976642608643e-01</leafValues></_>
        <_>
          <internalNodes>
            0 -1 157 1.9551804289221764e-03</internalNodes>
          <leafValues>
            -9.3656487762928009e-02 2.8019380569458008e-01</leafValues></_>
        <_>
          <internalNodes>
            0 -1 7 2.2061634808778763e-02</internalNodes>
          <leafValues>
            3.9214171469211578e-02 -6.0645687580108643e-01</leafValues></_>
        <_>
          <internalNodes>
            0 -1 171 -9.4393547624349594e-03</internalNodes>
          <leafValues>
            -4.9520111083984375e-01 4.0991358458995819e-02</leafValues></_>
        <_>
          <internalNodes>
            0 -1 58 -9.3369975686073303e-02</internalNodes>
          <leafValues>
            3.7728968262672424e-01 -6.6906787455081940e-02</leafValues></_>
        <_>
          <internalNodes>
            0 -1 134 -2.6124720461666584e-03</internalNodes>
          <leafValues>
            -5.6940549612045288e-01 4.1560065001249313e-02</leafValues></_>
        <_>
          <internalNodes>
            0 -1 130 -9.3035603640601039e-04</internalNodes>
          <leafValues>
            2.4709324538707733e-01 -1.0900115221738815e-01</leafValues></_></weakClassifiers></_>
    <!-- stage 2 -->
    <_>
      <maxWeakCount>64</maxWeakCount>
      <stageThreshold>-7.6767510175704956e-01</stageThreshold>
      <weakClassifiers>
        <_>
          <internalNodes>
            0 -1 117 -1.6246121376752853e-02</internalNodes>
          <leafValues>
            6.6058003902435303e-01 1.0235026478767395e-01</leafValues></_>
        <_>
          <internalNodes>
            0 -1 159 3.7880209274590015e-03</internalNodes>
          <leafValues>
            -1.0820834338665009e-01 4.7589796781539917e-01</leafValues></_>
        <_>
          <internalNodes>
            0 -1 207 -5.2988389506936073e-03</internalNodes>
          <leafValues>
            3.5603442788124084e-01 -1.1210253089666367e-01</leafValues></_>
        <_>
          <internalNodes>
            0 -1 15 -1.1045013088732958e-03</internalNodes>
          <leafValues>
            2.0127081871032715e-01 -1.7412933707237244e-01</leafValues></_>
        <_>
          <internalNodes>
            0 -1 163 2.6281937025487423e-03</internalNodes>
          <leafValues>
            -1.4426159858703613e-01 2.4761013686656952e-01</leafValues></_>
        <_>
          <internalNodes>
            0 -1 180 -7.2590168565511703e-03</internalNodes>
          <leafValues>
            -5.6953293085098267e-01 7.0527814328670502e-02</leafValues></_>
        <_>
          <internalNodes>
            0 -1 96 7.5863199308514595e-03</internalNodes>
          <leafValues>
            -6.2487434595823288e-02 4.6547520160675049e-01</leafValues></_>
        <_>
          <internalNodes>
            0 -1 3 -5.4035615921020508e-01</internalNodes>
          <leafValues>
            4.4982996582984924e-01 -7.9865336418151855e-02</leafValues></_>
        <_>
          <internalNodes>
            0 -1 78 5.6440657936036587e-03</internalNodes>
          <leafValues>
            -8.9182078838348389e-02 3.0293089151382446e-01</leafValues></_>
        <_>
          <internalNodes>
            0 -1 194 -6.0456246137619019e-03</internalNodes>
          <leafValues>
            3.4140962362289429e-01 -1.1665926128625870e-01</leafValues></_>
        <_>
          <internalNodes>
            0 -1 25 -5.8025785256177187e-04</internalNodes>
          <leafValues>
            2.2276125848293304e-01 -1.1897485703229904e-01</leafValues></_>
        <_>
          <internalNodes>
            0 -1 195 -2.4094567634165287e-03</internalNodes>
          <leafValues>
            -3.7306219339370728e-01 7.0801831781864166e-02</leafValues></_>
        <_>
          <internalNodes>
            0 -1 152 -2.3198466747999191e-02</internalNodes>
          <leafValues>
            -5.3031402826309204e-01 5.3332269191741943e-02</leafValues></_>
        <_>
          <internalNodes>
            0 -1 178 9.3274936079978943e-04</internalNodes>
          <leafValues>
            8.6829639971256256e-02 -3.1637260317802429e-01</leafValues></_>
        <_>
          <internalNodes>
            0 -1 215 -1.2064076028764248e-02</internalNodes>
          <leafValues>
            3.9124146103858948e-01 -6.7503884434700012e-02</leafValues></_>
        <_>
          <internalNodes>
            0 -1 67 -1.2202264741063118e-02</internalNodes>
          <leafValues>
            2.6262453198432922e-01 -9.7576007246971130e-02</leafValues></_>
        <_>
          <internalNodes>
            0 -1 196 -1.4254777925089002e-03</internalNodes>
          <leafValues>
            2.2873957455158234e-01 -1.0907742381095886e-01</leafValues></_>
        <_>
          <internalNodes>
            0 -1 214 3.9811432361602783e-03</internalNodes>
          <leafValues>
            -1.0239159315824509e-01 2.4266314506530762e-01</leafValues></_>
        <_>
          <internalNodes>
            0 -1 20 -1.9752064254134893e-03</internalNodes>
          <leafValues>
            2.5887793302536011e-01 -9.1653898358345032e-02</leafValues></_>
        <_>
          <internalNodes>
            0 -1 223 2.9220702126622200e-02</internalNodes>
          <leafValues>
            4.6596255153417587e-02 -5.4267108440399170e-01</leafValues></_>
        <_>
          <internalNodes>
            0 -1 208 -1.5734927728772163e-03</internalNodes>
          <leafValues>
            2.8464433550834656e-01 -8.5070170462131500e-02</leafValues></_>
        <_>
          <internalNodes>
            0 -1 193 5.4546594619750977e-03</internalNodes>
          <leafValues>
            -8.1090494990348816e-02 3.0098551511764526e-01</leafValues></_>
        <_>
          <internalNodes>
            0 -1 261 -5.1019350066781044e-03</internalNodes>
          <leafValues>
            -5.5884742736816406e-01 4.1680082678794861e-02</leafValues></_>
        <_>
          <internalNodes>
            0 -1 32 -1.4742666855454445e-02</internalNodes>
          <leafValues>
            3.7373620271682739e-01 -6.8237744271755219e-02</leafValues></_>
        <_>
          <internalNodes>
            0 -1 226 -3.1815902329981327e-03</internalNodes>
          <leafValues>
            -5.1275902986526489e-01 4.8745099455118179e-02</leafValues></_>
        <_>
          <internalNodes>
            0 -1 125 -3.3062152564525604e-02</internalNodes>
          <leafValues>
            4.8146656155586243e-01 -5.3078528493642807e-02</leafValues></_>
        <_>
          <internalNodes>
            0 -1 243 -1.0917192324995995e-02</internalNodes>
          <leafValues>
            -7.3010760545730591e-01 3.4611705690622330e-02</leafValues></_>
        <_>
          <internalNodes>
            0 -1 16 1.5201447531580925e-03</internalNodes>
          <leafValues>
            -1.1381474882364273e-01 2.1451053023338318e-01</leafValues></_>
        <_>
          <internalNodes>
            0 -1 181 5.5699748918414116e-04</internalNodes>
          <leafValues>
            -1.3526867330074310e-01 1.7998962104320526e-01</leafValues></_>
        <_>
          <internalNodes>
            0 -1 69 2.9930903110653162e-03</internalNodes>
          <leafValues>
            -8.5511304438114166e-02 2.8116419911384583e-01</leafValues></_>
        <_>
          <internalNodes>
            0 -1 244 1.9907068461179733e-02</internalNodes>
          <leafValues>
            -6.6652663052082062e-02 3.8339734077453613e-01</leafValues></_>
        <_>
          <internalNodes>
            0 -1 206 9.6033755689859390e-03</internalNodes>
          <leafValues>
            5.0876885652542114e-02 -5.4575532674789429e-01</leafValues></_>
        <_>
          <internalNodes>
            0 -1 237 -1.9402438774704933e-03</internalNodes>
          <leafValues>
            2.6850557327270508e-01 -9.2917360365390778e-02</leafValues></_>
        <_>
          <internalNodes>
            0 -1 88 -9.5165017992258072e-03</internalNodes>
          <leafValues>
            -8.1087183952331543e-01 3.0053885653614998e-02</leafValues></_>
        <_>
          <internalNodes>
            0 -1 248 5.7229064404964447e-03</internalNodes>
          <leafValues>
            3.6113932728767395e-02 -5.4416471719741821e-01</leafValues></_>
        <_>
          <internalNodes>
            0 -1 228 -1.4377353712916374e-02</internalNodes>
          <leafValues>
            -7.7302473783493042e-01 2.6911655440926552e-02</leafValues></_>
        <_>
          <internalNodes>
            0 -1 236 -8.9703705161809921e-03</internalNodes>
          <leafValues>
            6.2481832504272461e-01 -4.2141236364841461e-02</leafValues></_>
        <_>
          <internalNodes>
            0 -1 45 -1.6792606329545379e-03</internalNodes>
          <leafValues>
            1.9346597790718079e-01 -1.2357264757156372e-01</leafValues></_>
        <_>
          <internalNodes>
            0 -1 111 -1.7620825674384832e-03</internalNodes>
          <leafValues>
            2.3327989876270294e-01 -1.0969784110784531e-01</leafValues></_>
        <_>
          <internalNodes>
            0 -1 134 -2.4640450719743967e-03</internalNodes>
          <leafValues>
            -6.2313401699066162e-01 4.7131393104791641e-02</leafValues></_>
        <_>
          <internalNodes>
            0 -1 109 -2.3971223272383213e-03</internalNodes>
          <leafValues>
            2.9083853960037231e-01 -9.3492463231086731e-02</leafValues></_>
        <_>
          <internalNodes>
            0 -1 140 2.7174700051546097e-02</internalNodes>
          <leafValues>
            4.0524646639823914e-02 -6.3053494691848755e-01</leafValues></_>
        <_>
          <internalNodes>
            0 -1 86 -1.9550852011889219e-03</internalNodes>
          <leafValues>
            1.9799593091011047e-01 -1.3072507083415985e-01</leafValues></_>
        <_>
          <internalNodes>
            0 -1 135 3.6577158607542515e-03</internalNodes>
          <leafValues>
            6.0556218028068542e-02 -4.4169306755065918e-01</leafValues></_>
        <_>
          <internalNodes>
            0 -1 83 -4.5161377638578415e-03</internalNodes>
          <leafValues>
            -7.3747485876083374e-01 3.0038693919777870e-02</leafValues></_>
        <_>
          <internalNodes>
            0 -1 74 8.1584854051470757e-03</internalNodes>
          <leafValues>
            -1.5131412446498871e-01 1.5880098938941956e-01</leafValues></_>
        <_>
          <internalNodes>
            0 -1 50 -1.3337003765627742e-03</internalNodes>
          <leafValues>
            3.3203089237213135e-01 -7.5231775641441345e-02</leafValues></_>
        <_>
          <internalNodes>
            0 -1 40 -6.6462159156799316e-04</internalNodes>
          <leafValues>
            1.9852118194103241e-01 -1.1422500014305115e-01</leafValues></_>
        <_>
          <internalNodes>
            0 -1 89 -1.5874488279223442e-02</internalNodes>
          <leafValues>
            5.2076977491378784e-01 -4.1422341018915176e-02</leafValues></_>
        <_>
          <internalNodes>
            0 -1 41 -2.6497081853449345e-03</internalNodes>
          <leafValues>
            1.8023842573165894e-01 -1.2236593663692474e-01</leafValues></_>
        <_>
          <internalNodes>
            0 -1 148 5.1184231415390968e-04</internalNodes>
          <leafValues>
            1.1910984665155411e-01 -1.8217203021049500e-01</leafValues></_>
        <_>
          <internalNodes>
            0 -1 124 -4.1822306811809540e-02</internalNodes>
          <leafValues>
            7.3520511388778687e-01 -2.9954111203551292e-02</leafValues></_>
        <_>
          <internalNodes>
            0 -1 100 -2.8783334419131279e-02</internalNodes>
          <leafValues>
            -6.4365959167480469e-01 4.2027533054351807e-02</leafValues></_>
        <_>
          <internalNodes>
            0 -1 5 -3.0489414930343628e-02</internalNodes>
          <leafValues>
            -3.5829973220825195e-01 5.7539787143468857e-02</leafValues></_>
        <_>
          <internalNodes>
            0 -1 101 -5.9774275869131088e-03</internalNodes>
          <leafValues>
            -6.3944196701049805e-01 2.9267026111483574e-02</leafValues></_>
        <_>
          <internalNodes>
            0 -1 104 -3.1195282936096191e-03</internalNodes>
          <leafValues>
            3.8849431276321411e-01 -6.2996380031108856e-02</leafValues></_>
        <_>
          <internalNodes>
            0 -1 164 3.0172471888363361e-03</internalNodes>
          <leafValues>
            5.5939108133316040e-02 -3.7881389260292053e-01</leafValues></_>
        <_>
          <internalNodes>
            0 -1 245 -6.5216101938858628e-04</internalNodes>
          <leafValues>
            1.8468889594078064e-01 -1.2154226750135422e-01</leafValues></_>
        <_>
          <internalNodes>
            0 -1 255 5.1195651758462191e-04</internalNodes>
          <leafValues>
            -9.8685473203659058e-02 2.1380332112312317e-01</leafValues></_>
        <_>
          <internalNodes>
            0 -1 107 -1.8195767188444734e-03</internalNodes>
          <leafValues>
            2.5279092788696289e-01 -8.0808341503143311e-02</leafValues></_>
        <_>
          <internalNodes>
            0 -1 121 2.7546577621251345e-03</internalNodes>
          <leafValues>
            8.7885461747646332e-02 -2.4141040444374084e-01</leafValues></_>
        <_>
          <internalNodes>
            0 -1 180 7.0655429735779762e-03</internalNodes>
          <leafValues>
            3.6353051662445068e-02 -5.9225153923034668e-01</leafValues></_>
        <_>
          <internalNodes>
            0 -1 66 1.9920160993933678e-03</internalNodes>
          <leafValues>
            -1.3629119098186493e-01 1.8136233091354370e-01</leafValues></_>
        <_>
          <internalNodes>
            0 -1 52 -6.7563563585281372e-02</internalNodes>
          <leafValues>
            5.5339288711547852e-01 -4.5916058123111725e-02</leafValues></_></weakClassifiers></_>
    <!-- stage 3 -->
    <_>
      <maxWeakCount>75</maxWeakCount>
      <stageThreshold>-6.4614152908325195e-01</stageThreshold>
      <weakClassifiers>
        <_>
          <internalNodes>
            0 -1 160 3.0962161254137754e-03</internalNodes>
          <leafValues>
            1.2277867645025253e-01 5.9090906381607056e-01</leafValues></_>
        <_>
          <internalNodes>
            0 -1 4 -5.4834075272083282e-03</internalNodes>
          <leafValues>
            3.4854227304458618e-01 -1.0788750648498535e-01</leafValues></_>
        <_>
          <internalNodes>
            0 -1 79 2.3284068331122398e-02</internalNodes>
          <leafValues>
            -5.0533056259155273e-02 6.6166293621063232e-01</leafValues></_>
        <_>
          <internalNodes>
            0 -1 99 -6.0946713201701641e-03</internalNodes>
          <leafValues>
            3.1683883070945740e-01 -1.3227327167987823e-01</leafValues></_>
        <_>
          <internalNodes>
            0 -1 154 4.2249597609043121e-03</internalNodes>
          <leafValues>
            -1.0235781967639923e-01 2.8527444601058960e-01</leafValues></_>
        <_>
          <internalNodes>
            0 -1 182 -2.7739454526454210e-03</internalNodes>
          <leafValues>
            2.5276100635528564e-01 -9.1788187623023987e-02</leafValues></_>
        <_>
          <internalNodes>
            0 -1 46 -2.0353026688098907e-01</internalNodes>
          <leafValues>
            2.3991298675537109e-01 -1.0125818103551865e-01</leafValues></_>
        <_>
          <internalNodes>
            0 -1 12 -4.9486296484246850e-04</internalNodes>
          <leafValues>
            2.0138420164585114e-01 -1.0740564763545990e-01</leafValues></_>
        <_>
          <internalNodes>
            0 -1 73 -4.9689635634422302e-03</internalNodes>
          <leafValues>
            -2.7792719006538391e-01 8.2143276929855347e-02</leafValues></_>
        <_>
          <internalNodes>
            0 -1 119 1.0657726787030697e-02</internalNodes>
          <leafValues>
            3.3548988401889801e-02 -5.5278843641281128e-01</leafValues></_>
        <_>
          <internalNodes>
            0 -1 240 6.8576633930206299e-03</internalNodes>
          <leafValues>
            3.4701243042945862e-02 -5.5302911996841431e-01</leafValues></_>
        <_>
          <internalNodes>
            0 -1 113 2.3894995450973511e-02</internalNodes>
          <leafValues>
            6.3549652695655823e-02 -3.0040729045867920e-01</leafValues></_>
        <_>
          <internalNodes>
            0 -1 238 2.0928634330630302e-03</internalNodes>
          <leafValues>
            -1.0791072249412537e-01 1.8881508708000183e-01</leafValues></_>
        <_>
          <internalNodes>
            0 -1 76 -4.3062657117843628e-02</internalNodes>
          <leafValues>
            5.6930530071258545e-01 -3.3274225890636444e-02</leafValues></_>
        <_>
          <internalNodes>
            0 -1 219 3.0135784298181534e-02</internalNodes>
          <leafValues>
            -7.7814176678657532e-02 2.7922567725181580e-01</leafValues></_>
        <_>
          <internalNodes>
            0 -1 210 2.6495801284909248e-03</internalNodes>
          <leafValues>
            5.6756488978862762e-02 -3.5112887620925903e-01</leafValues></_>
        <_>
          <internalNodes>
            0 -1 211 -3.4436038695275784e-03</internalNodes>
          <leafValues>
            1.7619509994983673e-01 -1.2070381641387939e-01</leafValues></_>
        <_>
          <internalNodes>
            0 -1 143 6.4319044351577759e-02</internalNodes>
          <leafValues>
            -6.8034484982490540e-02 3.3660030364990234e-01</leafValues></_>
        <_>
          <internalNodes>
            0 -1 233 6.6203624010086060e-03</internalNodes>
          <leafValues>
            -7.2097785770893097e-02 3.0455523729324341e-01</leafValues></_>
        <_>
          <internalNodes>
            0 -1 42 -2.6366605889052153e-03</internalNodes>
          <leafValues>
            -2.9148218035697937e-01 6.6546805202960968e-02</leafValues></_>
        <_>
          <internalNodes>
            0 -1 70 2.6874912902712822e-02</internalNodes>
          <leafValues>
            -2.3535044863820076e-02 7.7801662683486938e-01</leafValues></_>
        <_>
          <internalNodes>
            0 -1 29 3.4311623312532902e-03</internalNodes>
          <leafValues>
            -6.7709922790527344e-02 2.5871211290359497e-01</leafValues></_>
        <_>
          <internalNodes>
            0 -1 26 -7.0642000064253807e-03</internalNodes>
          <leafValues>
            2.3701798915863037e-01 -9.1551102697849274e-02</leafValues></_>
        <_>
          <internalNodes>
            0 -1 250 -4.4383732602000237e-03</internalNodes>
          <leafValues>
            -3.8502457737922668e-01 5.2253585308790207e-02</leafValues></_>
        <_>
          <internalNodes>
            0 -1 57 7.7060729265213013e-02</internalNodes>
          <leafValues>
            3.1505782157182693e-02 -6.5281265974044800e-01</leafValues></_>
        <_>
          <internalNodes>
            0 -1 230 1.7717275768518448e-02</internalNodes>
          <leafValues>
            -5.2936192601919174e-02 3.9936345815658569e-01</leafValues></_>
        <_>
          <internalNodes>
            0 -1 241 -1.1350650340318680e-02</internalNodes>
          <leafValues>
            3.2504042983055115e-01 -6.0239035636186600e-02</leafValues></_>
        <_>
          <internalNodes>
            0 -1 21 3.4270417690277100e-01</internalNodes>
          <leafValues>
            -2.8131082653999329e-02 7.2008812427520752e-01</leafValues></_>
        <_>
          <internalNodes>
            0 -1 54 -4.5958202099427581e-04</internalNodes>
          <leafValues>
            1.4456707239151001e-01 -1.5003973245620728e-01</leafValues></_>
        <_>
          <internalNodes>
            0 -1 198 1.0891046375036240e-02</internalNodes>
          <leafValues>
            -1.0407534241676331e-01 1.9446063041687012e-01</leafValues></_>
        <_>
          <internalNodes>
            0 -1 216 -5.9043709188699722e-03</internalNodes>
          <leafValues>
            -2.7721908688545227e-01 7.4840083718299866e-02</leafValues></_>
        <_>
          <internalNodes>
            0 -1 232 2.0263621583580971e-02</internalNodes>
          <leafValues>
            -9.1665133833885193e-02 2.1626457571983337e-01</leafValues></_>
        <_>
          <internalNodes>
            0 -1 102 -8.9981164783239365e-03</internalNodes>
          <leafValues>
            2.7681264281272888e-01 -7.1424931287765503e-02</leafValues></_>
        <_>
          <internalNodes>
            0 -1 150 4.4567309319972992e-02</internalNodes>
          <leafValues>
            3.6617763340473175e-02 -5.6873482465744019e-01</leafValues></_>
        <_>
          <internalNodes>
            0 -1 190 2.1201348863542080e-03</internalNodes>
          <leafValues>
            -7.0586994290351868e-02 3.0285528302192688e-01</leafValues></_>
        <_>
          <internalNodes>
            0 -1 258 4.6607772819697857e-03</internalNodes>
          <leafValues>
            2.7373928576707840e-02 -7.9698008298873901e-01</leafValues></_>
        <_>
          <internalNodes>
            0 -1 190 -1.3560845982283354e-03</internalNodes>
          <leafValues>
            2.4326370656490326e-01 -9.0913251042366028e-02</leafValues></_>
        <_>
          <internalNodes>
            0 -1 80 2.9370439006015658e-04</internalNodes>
          <leafValues>
            -1.2733392417430878e-01 1.5169729292392731e-01</leafValues></_>
        <_>
          <internalNodes>
            0 -1 225 4.2011290788650513e-03</internalNodes>
          <leafValues>
            3.3533636480569839e-02 -6.0541921854019165e-01</leafValues></_>
        <_>
          <internalNodes>
            0 -1 90 -3.0000209808349609e-03</internalNodes>
          <leafValues>
            -2.5370848178863525e-01 7.9078286886215210e-02</leafValues></_>
        <_>
          <internalNodes>
            0 -1 55 -1.9311919459141791e-04</internalNodes>
          <leafValues>
            1.6408641636371613e-01 -1.2202707678079605e-01</leafValues></_>
        <_>
          <internalNodes>
            0 -1 231 9.1073324438184500e-04</internalNodes>
          <leafValues>
            -1.1862543970346451e-01 1.7080007493495941e-01</leafValues></_>
        <_>
          <internalNodes>
            0 -1 165 -8.3789788186550140e-03</internalNodes>
          <leafValues>
            -6.7079669237136841e-01 3.2698035240173340e-02</leafValues></_>
        <_>
          <internalNodes>
            0 -1 8 -3.6788731813430786e-03</internalNodes>
          <leafValues>
            2.0470885932445526e-01 -1.0902296751737595e-01</leafValues></_>
        <_>
          <internalNodes>
            0 -1 246 -3.0212095007300377e-02</internalNodes>
          <leafValues>
            3.3732941746711731e-01 -6.0495324432849884e-02</leafValues></_>
        <_>
          <internalNodes>
            0 -1 62 -6.6066565923392773e-03</internalNodes>
          <leafValues>
            -7.1078455448150635e-01 3.0014120042324066e-02</leafValues></_>
        <_>
          <internalNodes>
            0 -1 122 -7.9083114862442017e-02</internalNodes>
          <leafValues>
            6.4971441030502319e-01 -3.5015165805816650e-02</leafValues></_>
        <_>
          <internalNodes>
            0 -1 120 3.1085573136806488e-03</internalNodes>
          <leafValues>
            4.3883364647626877e-02 -4.9448505043983459e-01</leafValues></_>
        <_>
          <internalNodes>
            0 -1 35 4.0565684437751770e-02</internalNodes>
          <leafValues>
            -5.0623234361410141e-02 4.1479575634002686e-01</leafValues></_>
        <_>
          <internalNodes>
            0 -1 59 3.2996565103530884e-01</internalNodes>
          <leafValues>
            -2.2618113085627556e-02 6.9745707511901855e-01</leafValues></_>
        <_>
          <internalNodes>
            0 -1 257 1.8308735452592373e-03</internalNodes>
          <leafValues>
            -8.4587216377258301e-02 2.1017667651176453e-01</leafValues></_>
        <_>
          <internalNodes>
            0 -1 262 -3.6743334494531155e-03</internalNodes>
          <leafValues>
            -5.4895716905593872e-01 3.4349597990512848e-02</leafValues></_>
        <_>
          <internalNodes>
            0 -1 153 -1.5343171544373035e-03</internalNodes>
          <leafValues>
            2.0127840340137482e-01 -9.5206864178180695e-02</leafValues></_>
        <_>
          <internalNodes>
            0 -1 127 2.2219251841306686e-03</internalNodes>
          <leafValues>
            -1.0940095037221909e-01 2.2299277782440186e-01</leafValues></_>
        <_>
          <internalNodes>
            0 -1 11 1.8796838819980621e-02</internalNodes>
          <leafValues>
            2.8396327048540115e-02 -7.8347575664520264e-01</leafValues></_>
        <_>
          <internalNodes>
            0 -1 37 -1.5325662679970264e-03</internalNodes>
          <leafValues>
            1.7465703189373016e-01 -1.1526087671518326e-01</leafValues></_>
        <_>
          <internalNodes>
            0 -1 162 -2.2229902446269989e-02</internalNodes>
          <leafValues>
            -7.6623713970184326e-01 2.7098823338747025e-02</leafValues></_>
        <_>
          <internalNodes>
            0 -1 108 -1.0189572349190712e-02</internalNodes>
          <leafValues>
            3.2936659455299377e-01 -6.0925256460905075e-02</leafValues></_>
        <_>
          <internalNodes>
            0 -1 123 -4.9768656492233276e-02</internalNodes>
          <leafValues>
            -3.1117531657218933e-01 7.1408502757549286e-02</leafValues></_>
        <_>
          <internalNodes>
            0 -1 220 3.0073588714003563e-03</internalNodes>
          <leafValues>
            5.1144599914550781e-02 -3.7988105416297913e-01</leafValues></_>
        <_>
          <internalNodes>
            0 -1 199 -2.7589104138314724e-03</internalNodes>
          <leafValues>
            -4.8569867014884949e-01 3.9454296231269836e-02</leafValues></_>
        <_>
          <internalNodes>
            0 -1 203 5.4070549085736275e-03</internalNodes>
          <leafValues>
            -1.0650666803121567e-01 2.0354163646697998e-01</leafValues></_>
        <_>
          <internalNodes>
            0 -1 188 -2.4447673931717873e-02</internalNodes>
          <leafValues>
            2.7227392792701721e-01 -8.2707181572914124e-02</leafValues></_>
        <_>
          <internalNodes>
            0 -1 65 -3.6164993047714233e-01</internalNodes>
          <leafValues>
            6.2314361333847046e-01 -3.2759822905063629e-02</leafValues></_>
        <_>
          <internalNodes>
            0 -1 118 9.9963843822479248e-03</internalNodes>
          <leafValues>
            -6.8948455154895782e-02 2.8223419189453125e-01</leafValues></_>
        <_>
          <internalNodes>
            0 -1 224 -6.9845672696828842e-03</internalNodes>
          <leafValues>
            2.2642038762569427e-01 -8.9631445705890656e-02</leafValues></_>
        <_>
          <internalNodes>
            0 -1 227 2.2301308810710907e-02</internalNodes>
          <leafValues>
            4.1047092527151108e-02 -5.6758296489715576e-01</leafValues></_>
        <_>
          <internalNodes>
            0 -1 129 6.6163511946797371e-03</internalNodes>
          <leafValues>
            -4.9225438386201859e-02 4.7516733407974243e-01</leafValues></_>
        <_>
          <internalNodes>
            0 -1 34 1.4751080016139895e-04</internalNodes>
          <leafValues>
            1.3062755763530731e-01 -1.5595452487468719e-01</leafValues></_>
        <_>
          <internalNodes>
            0 -1 167 -2.5668341666460037e-02</internalNodes>
          <leafValues>
            7.5953763723373413e-01 -2.5811249390244484e-02</leafValues></_>
        <_>
          <internalNodes>
            0 -1 22 2.1662660874426365e-03</internalNodes>
          <leafValues>
            -5.2397824823856354e-02 3.5417097806930542e-01</leafValues></_>
        <_>
          <internalNodes>
            0 -1 28 -1.5517396386712790e-03</internalNodes>
          <leafValues>
            3.1960675120353699e-01 -6.2812663614749908e-02</leafValues></_>
        <_>
          <internalNodes>
            0 -1 87 4.1051297448575497e-03</internalNodes>
          <leafValues>
            4.3511025607585907e-02 -4.7906714677810669e-01</leafValues></_>
        <_>
          <internalNodes>
            0 -1 61 1.5696321497671306e-04</internalNodes>
          <leafValues>
            -1.3266105949878693e-01 1.6842022538185120e-01</leafValues></_>
        <_>
          <internalNodes>
            0 -1 30 6.4610159024596214e-03</internalNodes>
          <leafValues>
            -9.6479475498199463e-02 2.1533541381359100e-01</leafValues></_></weakClassifiers></_>
    <!-- stage 4 -->
    <_>
      <maxWeakCount>63</maxWeakCount>
      <stageThreshold>-5.9741246700286865e-01</stageThreshold>
      <weakClassifiers>
        <_>
          <internalNodes>
            0 -1 175 3.1020985916256905e-03</internalNodes>
          <leafValues>
            1.5952213108539581e-01 6.3240629434585571e-01</leafValues></_>
        <_>
          <internalNodes>
            0 -1 14 8.2080233842134476e-03</internalNodes>
          <leafValues>
            -9.0823978185653687e-02 4.1712108254432678e-01</leafValues></_>
        <_>
          <internalNodes>
            0 -1 139 8.3819217979907990e-03</internalNodes>
          <leafValues>
            -1.4121550321578979e-01 3.3318397402763367e-01</leafValues></_>
        <_>
          <internalNodes>
            0 -1 114 -1.1789393611252308e-02</internalNodes>
          <leafValues>
            3.2990762591362000e-01 -8.6522772908210754e-02</leafValues></_>
        <_>
          <internalNodes>
            0 -1 137 9.3770977109670639e-03</internalNodes>
          <leafValues>
            -5.6223835796117783e-02 7.0338058471679688e-01</leafValues></_>
        <_>
          <internalNodes>
            0 -1 151 1.9315613433718681e-02</internalNodes>
          <leafValues>
            -7.6213024556636810e-02 3.1415674090385437e-01</leafValues></_>
        <_>
          <internalNodes>
            0 -1 179 -5.7675009593367577e-03</internalNodes>
          <leafValues>
            -8.2948732376098633e-01 3.1048286706209183e-02</leafValues></_>
        <_>
          <internalNodes>
            0 -1 51 -9.0414215810596943e-04</internalNodes>
          <leafValues>
            1.6148895025253296e-01 -1.3290040194988251e-01</leafValues></_>
        <_>
          <internalNodes>
            0 -1 38 2.9724448919296265e-02</internalNodes>
          <leafValues>
            6.7568391561508179e-02 -3.0770379304885864e-01</leafValues></_>
        <_>
          <internalNodes>
            0 -1 260 -1.3044837396591902e-03</internalNodes>
          <leafValues>
            2.2402760386466980e-01 -1.0332099348306656e-01</leafValues></_>
        <_>
          <internalNodes>
            0 -1 47 6.7471885122358799e-03</internalNodes>
          <leafValues>
            -1.2960262596607208e-01 1.7029242217540741e-01</leafValues></_>
        <_>
          <internalNodes>
            0 -1 68 -2.2824075073003769e-02</internalNodes>
          <leafValues>
            2.5280290842056274e-01 -8.4333874285221100e-02</leafValues></_>
        <_>
          <internalNodes>
            0 -1 141 8.2057453691959381e-02</internalNodes>
          <leafValues>
            3.9071500301361084e-02 -5.7831227779388428e-01</leafValues></_>
        <_>
          <internalNodes>
            0 -1 221 2.0469128503464162e-04</internalNodes>
          <leafValues>
            -1.3845337927341461e-01 1.5235014259815216e-01</leafValues></_>
        <_>
          <internalNodes>
            0 -1 186 -1.8288202118128538e-03</internalNodes>
          <leafValues>
            1.6563683748245239e-01 -1.2962833046913147e-01</leafValues></_>
        <_>
          <internalNodes>
            0 -1 85 4.0815956890583038e-03</internalNodes>
          <leafValues>
            3.4330282360315323e-02 -6.6052341461181641e-01</leafValues></_>
        <_>
          <internalNodes>
            0 -1 134 -3.0869676265865564e-03</internalNodes>
          <leafValues>
            -6.8236780166625977e-01 2.7694204822182655e-02</leafValues></_>
        <_>
          <internalNodes>
            0 -1 111 -2.0025286357849836e-03</internalNodes>
          <leafValues>
            2.1300260722637177e-01 -1.0282346606254578e-01</leafValues></_>
        <_>
          <internalNodes>
            0 -1 187 1.9241801928728819e-03</internalNodes>
          <leafValues>
            -1.1651697009801865e-01 1.6874891519546509e-01</leafValues></_>
        <_>
          <internalNodes>
            0 -1 128 -6.8550201831385493e-04</internalNodes>
          <leafValues>
            2.1009103953838348e-01 -9.9912732839584351e-02</leafValues></_>
        <_>
          <internalNodes>
            0 -1 112 2.0832763984799385e-02</internalNodes>
          <leafValues>
            4.9985449761152267e-02 -4.7307869791984558e-01</leafValues></_>
        <_>
          <internalNodes>
            0 -1 97 -4.7087091952562332e-03</internalNodes>
          <leafValues>
            2.3931346833705902e-01 -9.6716791391372681e-02</leafValues></_>
        <_>
          <internalNodes>
            0 -1 53 1.1302679777145386e-02</internalNodes>
          <leafValues>
            -3.8437996059656143e-02 5.2980440855026245e-01</leafValues></_>
        <_>
          <internalNodes>
            0 -1 135 5.6223915889859200e-03</internalNodes>
          <leafValues>
            3.5467069596052170e-02 -6.8668812513351440e-01</leafValues></_>
        <_>
          <internalNodes>
            0 -1 147 2.7819359675049782e-03</internalNodes>
          <leafValues>
            8.1955365836620331e-02 -2.3887030780315399e-01</leafValues></_>
        <_>
          <internalNodes>
            0 -1 18 -1.6409568488597870e-02</internalNodes>
          <leafValues>
            -4.7058108448982239e-01 4.1624233126640320e-02</leafValues></_>
        <_>
          <internalNodes>
            0 -1 36 7.3919342830777168e-03</internalNodes>
          <leafValues>
            2.3771340027451515e-02 -8.1640779972076416e-01</leafValues></_>
        <_>
          <internalNodes>
            0 -1 116 6.9194816751405597e-04</internalNodes>
          <leafValues>
            -1.1394176632165909e-01 1.7683431506156921e-01</leafValues></_>
        <_>
          <internalNodes>
            0 -1 71 -5.9572506695985794e-02</internalNodes>
          <leafValues>
            2.1137572824954987e-01 -1.0224447399377823e-01</leafValues></_>
        <_>
          <internalNodes>
            0 -1 132 -1.6207173466682434e-02</internalNodes>
          <leafValues>
            -5.1923650503158569e-01 3.8621556013822556e-02</leafValues></_>
        <_>
          <internalNodes>
            0 -1 10 4.8222076147794724e-03</internalNodes>
          <leafValues>
            -6.7714318633079529e-02 3.3014333248138428e-01</leafValues></_>
        <_>
          <internalNodes>
            0 -1 192 -5.0450190901756287e-03</internalNodes>
          <leafValues>
            -2.9156121611595154e-01 6.6787883639335632e-02</leafValues></_>
        <_>
          <internalNodes>
            0 -1 229 1.8861574062611908e-04</internalNodes>
          <leafValues>
            -1.2511570751667023e-01 1.6913136839866638e-01</leafValues></_>
        <_>
          <internalNodes>
            0 -1 105 -7.6621510088443756e-03</internalNodes>
          <leafValues>
            -4.5401421189308167e-01 4.2368870228528976e-02</leafValues></_>
        <_>
          <internalNodes>
            0 -1 0 -3.1526137609034777e-03</internalNodes>
          <leafValues>
            1.8723632395267487e-01 -9.9133603274822235e-02</leafValues></_>
        <_>
          <internalNodes>
            0 -1 1 -4.1654575616121292e-03</internalNodes>
          <leafValues>
            -2.8260087966918945e-01 7.4419677257537842e-02</leafValues></_>
        <_>
          <internalNodes>
            0 -1 256 1.3219479005783796e-03</internalNodes>
          <leafValues>
            -9.6012659370899200e-02 1.8599033355712891e-01</leafValues></_>
        <_>
          <internalNodes>
            0 -1 200 -5.7068541646003723e-03</internalNodes>
          <leafValues>
            2.9835236072540283e-01 -5.9206712990999222e-02</leafValues></_>
        <_>
          <internalNodes>
            0 -1 204 -9.1409143060445786e-03</internalNodes>
          <leafValues>
            3.1401497125625610e-01 -5.6252386420965195e-02</leafValues></_>
        <_>
          <internalNodes>
            0 -1 64 1.1623322963714600e-02</internalNodes>
          <leafValues>
            -8.3564646542072296e-02 2.5568887591362000e-01</leafValues></_>
        <_>
          <internalNodes>
            0 -1 184 -7.1354001760482788e-02</internalNodes>
          <leafValues>
            4.8554337024688721e-01 -3.8881860673427582e-02</leafValues></_>
        <_>
          <internalNodes>
            0 -1 249 3.5424619913101196e-02</internalNodes>
          <leafValues>
            -5.1946006715297699e-02 3.2610529661178589e-01</leafValues></_>
        <_>
          <internalNodes>
            0 -1 213 -1.5949700027704239e-02</internalNodes>
          <leafValues>
            -4.4136953353881836e-01 5.6436449289321899e-02</leafValues></_>
        <_>
          <internalNodes>
            0 -1 72 -6.5357296261936426e-04</internalNodes>
          <leafValues>
            1.6261024773120880e-01 -1.1114861071109772e-01</leafValues></_>
        <_>
          <internalNodes>
            0 -1 183 -2.9873820021748543e-02</internalNodes>
          <leafValues>
            -4.8554319143295288e-01 4.1889123618602753e-02</leafValues></_>
        <_>
          <internalNodes>
            0 -1 95 9.5217637717723846e-03</internalNodes>
          <leafValues>
            -4.4598702341318130e-02 4.3329882621765137e-01</leafValues></_>
        <_>
          <internalNodes>
            0 -1 84 3.0174478888511658e-03</internalNodes>
          <leafValues>
            3.9285439997911453e-02 -4.6915256977081299e-01</leafValues></_>
        <_>
          <internalNodes>
            0 -1 103 -2.0409829914569855e-02</internalNodes>
          <leafValues>
            4.4594326615333557e-01 -4.7199804335832596e-02</leafValues></_>
        <_>
          <internalNodes>
            0 -1 166 -4.2319791391491890e-03</internalNodes>
          <leafValues>
            2.3077347874641418e-01 -8.6790226399898529e-02</leafValues></_>
        <_>
          <internalNodes>
            0 -1 201 6.1758104711771011e-03</internalNodes>
          <leafValues>
            3.0357405543327332e-02 -6.3414400815963745e-01</leafValues></_>
        <_>
          <internalNodes>
            0 -1 155 -6.6825095564126968e-03</internalNodes>
          <leafValues>
            1.8765659630298615e-01 -9.9114328622817993e-02</leafValues></_>
        <_>
          <internalNodes>
            0 -1 176 -5.6149765849113464e-02</internalNodes>
          <leafValues>
            -4.8220098018646240e-01 4.7838736325502396e-02</leafValues></_>
        <_>
          <internalNodes>
            0 -1 92 6.6411964595317841e-02</internalNodes>
          <leafValues>
            5.9092015027999878e-02 -3.4718954563140869e-01</leafValues></_>
        <_>
          <internalNodes>
            0 -1 253 1.5451030805706978e-02</internalNodes>
          <leafValues>
            -9.2945486307144165e-02 2.3500677943229675e-01</leafValues></_>
        <_>
          <internalNodes>
            0 -1 144 -1.9916668534278870e-03</internalNodes>
          <leafValues>
            1.8749402463436127e-01 -1.1264981329441071e-01</leafValues></_>
        <_>
          <internalNodes>
            0 -1 63 -1.1384356766939163e-02</internalNodes>
          <leafValues>
            -5.4901444911956787e-01 4.0022931993007660e-02</leafValues></_>
        <_>
          <internalNodes>
            0 -1 259 2.8482356574386358e-03</internalNodes>
          <leafValues>
            -1.0707920789718628e-01 1.7417621612548828e-01</leafValues></_>
        <_>
          <internalNodes>
            0 -1 212 2.9566973447799683e-02</internalNodes>
          <leafValues>
            -2.5889078155159950e-02 7.7197855710983276e-01</leafValues></_>
        <_>
          <internalNodes>
            0 -1 149 -4.6463701874017715e-03</internalNodes>
          <leafValues>
            -7.3830133676528931e-01 2.9123919084668159e-02</leafValues></_>
        <_>
          <internalNodes>
            0 -1 6 7.3057174682617188e-02</internalNodes>
          <leafValues>
            1.8889246508479118e-02 -7.1861445903778076e-01</leafValues></_>
        <_>
          <internalNodes>
            0 -1 172 7.8945048153400421e-03</internalNodes>
          <leafValues>
            6.3188888132572174e-02 -2.6457318663597107e-01</leafValues></_>
        <_>
          <internalNodes>
            0 -1 217 8.5732870502397418e-05</internalNodes>
          <leafValues>
            -1.1987611651420593e-01 1.4812465012073517e-01</leafValues></_>
        <_>
          <internalNodes>
            0 -1 222 3.2044695690274239e-03</internalNodes>
          <leafValues>
            5.2555378526449203e-02 -3.4926879405975342e-01</leafValues></_></weakClassifiers></_></stages>
  <features>
    <_>
      <rects>
        <_>
          0 0 2 9 -1.</_>
        <_>
          1 0 1 9 2.</_></rects>
      <tilted>0</tilted></_>
    <_>
      <rects>
        <_>
          0 0 6 1 -1.</_>
        <_>
          3 0 3 1 2.</_></rects>
      <tilted>0</tilted></_>
    <_>
      <rects>
        <_>
          0 2 2 6 -1.</_>
        <_>
          0 4 2 2 3.</_></rects>
      <tilted>0</tilted></_>
    <_>
      <rects>
        <_>
          0 2 20 18 -1.</_>
        <_>
          0 11 20 9 2.</_></rects>
      <tilted>0</tilted></_>
    <_>
      <rects>
        <_>
          0 3 2 8 -1.</_>
        <_>
          0 3 1 4 2.</_>
        <_>
          1 7 1 4 2.</_></rects>
      <tilted>0</tilted></_>
    <_>
      <rects>
        <_>
          0 3 2 12 -1.</_>
        <_>
          0 7 2 4 3.</_></rects>
      <tilted>0</tilted></_>
    <_>
      <rects>
        <_>
          0 3 2 14 -1.</_>
        <_>
          0 10 2 7 2.</_></rects>
      <tilted>0</tilted></_>
    <_>
      <rects>
        <_>
          0 3 6 4 -1.</_>
        <_>
          0 3 3 2 2.</_>
        <_>
          3 5 3 2 2.</_></rects>
      <tilted>0</tilted></_>
    <_>
      <rects>
        <_>
          0 4 2 8 -1.</_>
        <_>
          0 4 1 4 2.</_>
        <_>
          1 8 1 4 2.</_></rects>
      <tilted>0</tilted></_>
    <_>
      <rects>
        <_>
          0 4 4 13 -1.</_>
        <_>
          2 4 2 13 2.</_></rects>
      <tilted>0</tilted></_>
    <_>
      <rects>
        <_>
          0 5 3 2 -1.</_>
        <_>
          1 5 1 2 3.</_></rects>
      <tilted>0</tilted></_>
    <_>
      <rects>
        <_>
          0 5 4 3 -1.</_>
        <_>
          0 6 4 1 3.</_></rects>
      <tilted>0</tilted></_>
    <_>
      <rects>
        <_>
          0 6 2 1 -1.</_>
        <_>
          1 6 1 1 2.</_></rects>
      <tilted>0</tilted></_>
    <_>
      <rects>
        <_>
          0 6 2 2 -1.</_>
        <_>
          0 6 1 1 2.</_>
        <_>
          1 7 1 1 2.</_></rects>
      <tilted>0</tilted></_>
    <_>
      <rects>
        <_>
          0 7 2 10 -1.</_>
        <_>
          0 7 1 5 2.</_>
        <_>
          1 12 1 5 2.</_></rects>
      <tilted>0</tilted></_>
    <_>
      <rects>
        <_>
          0 8 2 2 -1.</_>
        <_>
          1 8 1 2 2.</_></rects>
      <tilted>0</tilted></_>
    <_>
      <rects>
        <_>
          0 8 2 4 -1.</_>
        <_>
          0 8 1 2 2.</_>
        <_>
          1 10 1 2 2.</_></rects>
      <tilted>0</tilted></_>
    <_>
      <rects>
        <_>
          0 8 2 3 -1.</_>
        <_>
          1 8 1 3 2.</_></rects>
      <tilted>0</tilted></_>
    <_>
      <rects>
        <_>
          0 8 14 2 -1.</_>
        <_>
          0 8 7 1 2.</_>
        <_>
          7 9 7 1 2.</_></rects>
      <tilted>0</tilted></_>
    <_>
      <rects>
        <_>
          0 9 3 1 -1.</_>
        <_>
          1 9 1 1 3.</_></rects>
      <tilted>0</tilted></_>
    <_>
      <rects>
        <_>
          0 9 2 4 -1.</_>
        <_>
          0 9 1 2 2.</_>
        <_>
          1 11 1 2 2.</_></rects>
      <tilted>0</tilted></_>
    <_>
      <rects>
        <_>
          0 9 18 11 -1.</_>
        <_>
          9 9 9 11 2.</_></rects>
      <tilted>0</tilted></_>
    <_>
      <rects>
        <_>
          0 10 2 1 -1.</_>
        <_>
          1 10 1 1 2.</_></rects>
      <tilted>0</tilted></_>
    <_>
      <rects>
        <_>
          0 10 2 2 -1.</_>
        <_>
          0 10 1 1 2.</_>
        <_>
          1 11 1 1 2.</_></rects>
      <tilted>0</tilted></_>
    <_>
      <rects>
        <_>
          0 10 2 2 -1.</_>
        <_>
          1 10 1 2 2.</_></rects>
      <tilted>0</tilted></_>
    <_>
      <rects>
        <_>
          0 11 1 2 -1.</_>
        <_>
          0 12 1 1 2.</_></rects>
      <tilted>0</tilted></_>
    <_>
      <rects>
        <_>
          0 11 1 8 -1.</_>
        <_>
          0 15 1 4 2.</_></rects>
      <tilted>0</tilted></_>
    <_>
      <rects>
        <_>
          0 11 2 5 -1.</_>
        <_>
          1 11 1 5 2.</_></rects>
      <tilted>0</tilted></_>
    <_>
      <rects>
        <_>
          0 12 1 2 -1.</_>
        <_>
          0 13 1 1 2.</_></rects>
      <tilted>0</tilted></_>
    <_>
      <rects>
        <_>
          0 12 2 3 -1.</_>
        <_>
          1 12 1 3 2.</_></rects>
      <tilted>0</tilted></_>
    <_>
      <rects>
        <_>
          0 13 17 3 -1.</_>
        <_>
          0 14 17 1 3.</_></rects>
      <tilted>0</tilted></_>
    <_>
      <rects>
        <_>
          0 15 2 2 -1.</_>
        <_>
          1 15 1 2 2.</_></rects>
      <tilted>0</tilted></_>
    <_>
      <rects>
        <_>
          0 15 4 4 -1.</_>
        <_>
          0 17 4 2 2.</_></rects>
      <tilted>0</tilted></_>
    <_>
      <rects>
        <_>
          0 15 5 3 -1.</_>
        <_>
          0 16 5 1 3.</_></rects>
      <tilted>0</tilted></_>
    <_>
      <rects>
        <_>
          0 19 2 1 -1.</_>
        <_>
          1 19 1 1 2.</_></rects>
      <tilted>0</tilted></_>
    <_>
      <rects>
        <_>
          1 0 6 9 -1.</_>
        <_>
          3 0 2 9 3.</_></rects>
      <tilted>0</tilted></_>
    <_>
      <rects>
        <_>
          1 2 1 3 -1.</_>
        <_>
          1 3 1 1 3.</_></rects>
      <tilted>0</tilted></_>
    <_>
      <rects>
        <_>
          1 3 2 6 -1.</_>
        <_>
          1 3 1 3 2.</_>
        <_>
          2 6 1 3 2.</_></rects>
      <tilted>0</tilted></_>
    <_>
      <rects>
        <_>
          1 4 15 4 -1.</_>
        <_>
          1 6 15 2 2.</_></rects>
      <tilted>0</tilted></_>
    <_>
      <rects>
        <_>
          1 6 6 6 -1.</_>
        <_>
          3 6 2 6 3.</_></rects>
      <tilted>0</tilted></_>
    <_>
      <rects>
        <_>
          1 13 1 3 -1.</_>
        <_>
          1 14 1 1 3.</_></rects>
      <tilted>0</tilted></_>
    <_>
      <rects>
        <_>
          1 16 12 1 -1.</_>
        <_>
          5 16 4 1 3.</_></rects>
      <tilted>0</tilted></_>
    <_>
      <rects>
        <_>
          2 0 2 2 -1.</_>
        <_>
          2 1 2 1 2.</_></rects>
      <tilted>0</tilted></_>
    <_>
      <rects>
        <_>
          2 1 8 6 -1.</_>
        <_>
          2 1 4 3 2.</_>
        <_>
          6 4 4 3 2.</_></rects>
      <tilted>0</tilted></_>
    <_>
      <rects>
        <_>
          2 4 1 3 -1.</_>
        <_>
          2 5 1 1 3.</_></rects>
      <tilted>0</tilted></_>
    <_>
      <rects>
        <_>
          2 4 6 2 -1.</_>
        <_>
          2 5 6 1 2.</_></rects>
      <tilted>0</tilted></_>
    <_>
      <rects>
        <_>
          2 4 13 16 -1.</_>
        <_>
          2 12 13 8 2.</_></rects>
      <tilted>0</tilted></_>
    <_>
      <rects>
        <_>
          2 5 8 2 -1.</_>
        <_>
          6 5 4 2 2.</_></rects>
      <tilted>0</tilted></_>
    <_>
      <rects>
        <_>
          2 5 14 2 -1.</_>
        <_>
          2 5 7 1 2.</_>
        <_>
          9 6 7 1 2.</_></rects>
      <tilted>0</tilted></_>
    <_>
      <rects>
        <_>
          2 5 16 2 -1.</_>
        <_>
          2 5 8 1 2.</_>
        <_>
          10 6 8 1 2.</_></rects>
      <tilted>0</tilted></_>
    <_>
      <rects>
        <_>
          2 9 2 2 -1.</_>
        <_>
          2 9 1 1 2.</_>
        <_>
          3 10 1 1 2.</_></rects>
      <tilted>0</tilted></_>
    <_>
      <rects>
        <_>
          2 10 4 2 -1.</_>
        <_>
          2 11 4 1 2.</_></rects>
      <tilted>0</tilted></_>
    <_>
      <rects>
        <_>
          2 10 4 10 -1.</_>
        <_>
          2 15 4 5 2.</_></rects>
      <tilted>0</tilted></_>
    <_>
      <rects>
        <_>
          2 13 2 4 -1.</_>
        <_>
          2 15 2 2 2.</_></rects>
      <tilted>0</tilted></_>
    <_>
      <rects>
        <_>
          2 15 14 3 -1.</_>
        <_>
          9 15 7 3 2.</_></rects>
      <tilted>0</tilted></_>
    <_>
      <rects>
        <_>
          2 17 2 2 -1.</_>
        <_>
          3 17 1 2 2.</_></rects>
      <tilted>0</tilted></_>
    <_>
      <rects>
        <_>
          3 0 17 6 -1.</_>
        <_>
          3 3 17 3 2.</_></rects>
      <tilted>0</tilted></_>
    <_>
      <rects>
        <_>
          3 3 4 9 -1.</_>
        <_>
          3 6 4 3 3.</_></rects>
      <tilted>0</tilted></_>
    <_>
      <rects>
        <_>
          3 4 10 16 -1.</_>
        <_>
          3 4 5 8 2.</_>
        <_>
          8 12 5 8 2.</_></rects>
      <tilted>0</tilted></_>
    <_>
      <rects>
        <_>
          3 4 15 15 -1.</_>
        <_>
          3 9 15 5 3.</_></rects>
      <tilted>0</tilted></_>
    <_>
      <rects>
        <_>
          3 15 2 3 -1.</_>
        <_>
          3 16 2 1 3.</_></rects>
      <tilted>0</tilted></_>
    <_>
      <rects>
        <_>
          3 15 6 2 -1.</_>
        <_>
          3 15 3 1 2.</_>
        <_>
          6 16 3 1 2.</_></rects>
      <tilted>0</tilted></_>
    <_>
      <rects>
        <_>
          3 19 3 1 -1.</_>
        <_>
          4 19 1 1 3.</_></rects>
      <tilted>0</tilted></_>
    <_>
      <rects>
        <_>
          4 1 8 2 -1.</_>
        <_>
          4 1 4 1 2.</_>
        <_>
          8 2 4 1 2.</_></rects>
      <tilted>0</tilted></_>
    <_>
      <rects>
        <_>
          4 3 14 1 -1.</_>
        <_>
          11 3 7 1 2.</_></rects>
      <tilted>0</tilted></_>
    <_>
      <rects>
        <_>
          4 3 16 17 -1.</_>
        <_>
          12 3 8 17 2.</_></rects>
      <tilted>0</tilted></_>
    <_>
      <rects>
        <_>
          4 4 6 2 -1.</_>
        <_>
          6 4 2 2 3.</_></rects>
      <tilted>0</tilted></_>
    <_>
      <rects>
        <_>
          4 4 8 4 -1.</_>
        <_>
          4 4 4 2 2.</_>
        <_>
          8 6 4 2 2.</_></rects>
      <tilted>0</tilted></_>
    <_>
      <rects>
        <_>
          4 6 9 5 -1.</_>
        <_>
          7 6 3 5 3.</_></rects>
      <tilted>0</tilted></_>
    <_>
      <rects>
        <_>
          4 7 6 2 -1.</_>
        <_>
          4 7 3 1 2.</_>
        <_>
          7 8 3 1 2.</_></rects>
      <tilted>0</tilted></_>
    <_>
      <rects>
        <_>
          4 8 2 6 -1.</_>
        <_>
          4 10 2 2 3.</_></rects>
      <tilted>0</tilted></_>
    <_>
      <rects>
        <_>
          4 8 15 12 -1.</_>
        <_>
          9 8 5 12 3.</_></rects>
      <tilted>0</tilted></_>
    <_>
      <rects>
        <_>
          4 10 2 2 -1.</_>
        <_>
          4 11 2 1 2.</_></rects>
      <tilted>0</tilted></_>
    <_>
      <rects>
        <_>
          5 0 10 2 -1.</_>
        <_>
          5 0 5 1 2.</_>
        <_>
          10 1 5 1 2.</_></rects>
      <tilted>0</tilted></_>
    <_>
      <rects>
        <_>
          5 1 9 6 -1.</_>
        <_>
          5 4 9 3 2.</_></rects>
      <tilted>0</tilted></_>
    <_>
      <rects>
        <_>
          5 2 8 6 -1.</_>
        <_>
          5 2 4 3 2.</_>
        <_>
          9 5 4 3 2.</_></rects>
      <tilted>0</tilted></_>
    <_>
      <rects>
        <_>
          5 3 10 4 -1.</_>
        <_>
          5 3 5 2 2.</_>
        <_>
          10 5 5 2 2.</_></rects>
      <tilted>0</tilted></_>
    <_>
      <rects>
        <_>
          5 5 6 2 -1.</_>
        <_>
          5 5 3 1 2.</_>
        <_>
          8 6 3 1 2.</_></rects>
      <tilted>0</tilted></_>
    <_>
      <rects>
        <_>
          5 5 10 2 -1.</_>
        <_>
          5 5 5 1 2.</_>
        <_>
          10 6 5 1 2.</_></rects>
      <tilted>0</tilted></_>
    <_>
      <rects>
        <_>
          5 5 12 2 -1.</_>
        <_>
          5 5 6 1 2.</_>
        <_>
          11 6 6 1 2.</_></rects>
      <tilted>0</tilted></_>
    <_>
      <rects>
        <_>
          5 6 3 3 -1.</_>
        <_>
          6 6 1 3 3.</_></rects>
      <tilted>0</tilted></_>
    <_>
      <rects>
        <_>
          5 6 2 6 -1.</_>
        <_>
          5 9 2 3 2.</_></rects>
      <tilted>0</tilted></_>
    <_>
      <rects>
        <_>
          5 7 2 8 -1.</_>
        <_>
          5 11 2 4 2.</_></rects>
      <tilted>0</tilted></_>
    <_>
      <rects>
        <_>
          5 8 2 2 -1.</_>
        <_>
          5 8 1 1 2.</_>
        <_>
          6 9 1 1 2.</_></rects>
      <tilted>0</tilted></_>
    <_>
      <rects>
        <_>
          5 9 2 2 -1.</_>
        <_>
          5 9 1 1 2.</_>
        <_>
          6 10 1 1 2.</_></rects>
      <tilted>0</tilted></_>
    <_>
      <rects>
        <_>
          5 10 2 2 -1.</_>
        <_>
          5 10 1 1 2.</_>
        <_>
          6 11 1 1 2.</_></rects>
      <tilted>0</tilted></_>
    <_>
      <rects>
        <_>
          5 12 6 2 -1.</_>
        <_>
          7 12 2 2 3.</_></rects>
      <tilted>0</tilted></_>
    <_>
      <rects>
        <_>
          5 13 1 3 -1.</_>
        <_>
          5 14 1 1 3.</_></rects>
      <tilted>0</tilted></_>
    <_>
      <rects>
        <_>
          5 13 2 4 -1.</_>
        <_>
          5 13 1 2 2.</_>
        <_>
          6 15 1 2 2.</_></rects>
      <tilted>0</tilted></_>
    <_>
      <rects>
        <_>
          5 16 8 1 -1.</_>
        <_>
          9 16 4 1 2.</_></rects>
      <tilted>0</tilted></_>
    <_>
      <rects>
        <_>
          6 0 2 6 -1.</_>
        <_>
          6 0 1 3 2.</_>
        <_>
          7 3 1 3 2.</_></rects>
      <tilted>0</tilted></_>
    <_>
      <rects>
        <_>
          6 1 4 18 -1.</_>
        <_>
          6 10 4 9 2.</_></rects>
      <tilted>0</tilted></_>
    <_>
      <rects>
        <_>
          6 2 7 10 -1.</_>
        <_>
          6 7 7 5 2.</_></rects>
      <tilted>0</tilted></_>
    <_>
      <rects>
        <_>
          6 3 7 6 -1.</_>
        <_>
          6 5 7 2 3.</_></rects>
      <tilted>0</tilted></_>
    <_>
      <rects>
        <_>
          6 4 4 2 -1.</_>
        <_>
          6 4 2 1 2.</_>
        <_>
          8 5 2 1 2.</_></rects>
      <tilted>0</tilted></_>
    <_>
      <rects>
        <_>
          6 4 6 2 -1.</_>
        <_>
          6 4 3 1 2.</_>
        <_>
          9 5 3 1 2.</_></rects>
      <tilted>0</tilted></_>
    <_>
      <rects>
        <_>
          6 5 2 3 -1.</_>
        <_>
          6 6 2 1 3.</_></rects>
      <tilted>0</tilted></_>
    <_>
      <rects>
        <_>
          6 5 6 2 -1.</_>
        <_>
          6 5 3 1 2.</_>
        <_>
          9 6 3 1 2.</_></rects>
      <tilted>0</tilted></_>
    <_>
      <rects>
        <_>
          6 5 9 2 -1.</_>
        <_>
          9 5 3 2 3.</_></rects>
      <tilted>0</tilted></_>
    <_>
      <rects>
        <_>
          6 5 8 2 -1.</_>
        <_>
          6 5 4 1 2.</_>
        <_>
          10 6 4 1 2.</_></rects>
      <tilted>0</tilted></_>
    <_>
      <rects>
        <_>
          6 5 8 2 -1.</_>
        <_>
          10 5 4 2 2.</_></rects>
      <tilted>0</tilted></_>
    <_>
      <rects>
        <_>
          6 6 3 1 -1.</_>
        <_>
          7 6 1 1 3.</_></rects>
      <tilted>0</tilted></_>
    <_>
      <rects>
        <_>
          6 6 2 4 -1.</_>
        <_>
          6 8 2 2 2.</_></rects>
      <tilted>0</tilted></_>
    <_>
      <rects>
        <_>
          6 6 2 6 -1.</_>
        <_>
          6 8 2 2 3.</_></rects>
      <tilted>0</tilted></_>
    <_>
      <rects>
        <_>
          6 8 3 1 -1.</_>
        <_>
          7 8 1 1 3.</_></rects>
      <tilted>0</tilted></_>
    <_>
      <rects>
        <_>
          6 10 2 3 -1.</_>
        <_>
          6 11 2 1 3.</_></rects>
      <tilted>0</tilted></_>
    <_>
      <rects>
        <_>
          7 1 5 9 -1.</_>
        <_>
          7 4 5 3 3.</_></rects>
      <tilted>0</tilted></_>
    <_>
      <rects>
        <_>
          7 3 1 3 -1.</_>
        <_>
          7 4 1 1 3.</_></rects>
      <tilted>0</tilted></_>
    <_>
      <rects>
        <_>
          7 3 10 2 -1.</_>
        <_>
          7 3 5 1 2.</_>
        <_>
          12 4 5 1 2.</_></rects>
      <tilted>0</tilted></_>
    <_>
      <rects>
        <_>
          7 4 4 1 -1.</_>
        <_>
          9 4 2 1 2.</_></rects>
      <tilted>0</tilted></_>
    <_>
      <rects>
        <_>
          7 4 2 3 -1.</_>
        <_>
          7 5 2 1 3.</_></rects>
      <tilted>0</tilted></_>
    <_>
      <rects>
        <_>
          7 4 4 2 -1.</_>
        <_>
          7 4 2 1 2.</_>
        <_>
          9 5 2 1 2.</_></rects>
      <tilted>0</tilted></_>
    <_>
      <rects>
        <_>
          7 4 6 3 -1.</_>
        <_>
          10 4 3 3 2.</_></rects>
      <tilted>0</tilted></_>
    <_>
      <rects>
        <_>
          7 4 9 3 -1.</_>
        <_>
          10 4 3 3 3.</_></rects>
      <tilted>0</tilted></_>
    <_>
      <rects>
        <_>
          7 4 8 4 -1.</_>
        <_>
          7 4 4 2 2.</_>
        <_>
          11 6 4 2 2.</_></rects>
      <tilted>0</tilted></_>
    <_>
      <rects>
        <_>
          7 5 3 1 -1.</_>
        <_>
          8 5 1 1 3.</_></rects>
      <tilted>0</tilted></_>
    <_>
      <rects>
        <_>
          7 5 4 2 -1.</_>
        <_>
          7 5 2 1 2.</_>
        <_>
          9 6 2 1 2.</_></rects>
      <tilted>0</tilted></_>
    <_>
      <rects>
        <_>
          7 5 6 4 -1.</_>
        <_>
          7 7 6 2 2.</_></rects>
      <tilted>0</tilted></_>
    <_>
      <rects>
        <_>
          7 6 6 4 -1.</_>
        <_>
          7 6 3 2 2.</_>
        <_>
          10 8 3 2 2.</_></rects>
      <tilted>0</tilted></_>
    <_>
      <rects>
        <_>
          7 10 3 3 -1.</_>
        <_>
          7 11 3 1 3.</_></rects>
      <tilted>0</tilted></_>
    <_>
      <rects>
        <_>
          7 12 2 2 -1.</_>
        <_>
          7 12 1 1 2.</_>
        <_>
          8 13 1 1 2.</_></rects>
      <tilted>0</tilted></_>
    <_>
      <rects>
        <_>
          8 0 3 3 -1.</_>
        <_>
          8 1 3 1 3.</_></rects>
      <tilted>0</tilted></_>
    <_>
      <rects>
        <_>
          8 1 6 13 -1.</_>
        <_>
          10 1 2 13 3.</_></rects>
      <tilted>0</tilted></_>
    <_>
      <rects>
        <_>
          8 1 12 8 -1.</_>
        <_>
          8 1 6 4 2.</_>
        <_>
          14 5 6 4 2.</_></rects>
      <tilted>0</tilted></_>
    <_>
      <rects>
        <_>
          8 2 6 6 -1.</_>
        <_>
          8 2 3 3 2.</_>
        <_>
          11 5 3 3 2.</_></rects>
      <tilted>0</tilted></_>
    <_>
      <rects>
        <_>
          8 2 10 4 -1.</_>
        <_>
          8 2 5 2 2.</_>
        <_>
          13 4 5 2 2.</_></rects>
      <tilted>0</tilted></_>
    <_>
      <rects>
        <_>
          8 3 1 3 -1.</_>
        <_>
          8 4 1 1 3.</_></rects>
      <tilted>0</tilted></_>
    <_>
      <rects>
        <_>
          8 3 2 3 -1.</_>
        <_>
          8 4 2 1 3.</_></rects>
      <tilted>0</tilted></_>
    <_>
      <rects>
        <_>
          8 4 1 2 -1.</_>
        <_>
          8 5 1 1 2.</_></rects>
      <tilted>0</tilted></_>
    <_>
      <rects>
        <_>
          8 4 1 3 -1.</_>
        <_>
          8 5 1 1 3.</_></rects>
      <tilted>0</tilted></_>
    <_>
      <rects>
        <_>
          8 4 2 2 -1.</_>
        <_>
          8 4 1 1 2.</_>
        <_>
          9 5 1 1 2.</_></rects>
      <tilted>0</tilted></_>
    <_>
      <rects>
        <_>
          8 4 2 2 -1.</_>
        <_>
          8 5 2 1 2.</_></rects>
      <tilted>0</tilted></_>
    <_>
      <rects>
        <_>
          8 4 4 3 -1.</_>
        <_>
          10 4 2 3 2.</_></rects>
      <tilted>0</tilted></_>
    <_>
      <rects>
        <_>
          8 4 3 4 -1.</_>
        <_>
          8 6 3 2 2.</_></rects>
      <tilted>0</tilted></_>
    <_>
      <rects>
        <_>
          8 5 2 1 -1.</_>
        <_>
          9 5 1 1 2.</_></rects>
      <tilted>0</tilted></_>
    <_>
      <rects>
        <_>
          8 5 3 1 -1.</_>
        <_>
          9 5 1 1 3.</_></rects>
      <tilted>0</tilted></_>
    <_>
      <rects>
        <_>
          8 5 3 2 -1.</_>
        <_>
          9 5 1 2 3.</_></rects>
      <tilted>0</tilted></_>
    <_>
      <rects>
        <_>
          8 5 4 2 -1.</_>
        <_>
          8 5 2 1 2.</_>
        <_>
          10 6 2 1 2.</_></rects>
      <tilted>0</tilted></_>
    <_>
      <rects>
        <_>
          8 5 6 2 -1.</_>
        <_>
          11 5 3 2 2.</_></rects>
      <tilted>0</tilted></_>
    <_>
      <rects>
        <_>
          8 5 8 2 -1.</_>
        <_>
          8 5 4 1 2.</_>
        <_>
          12 6 4 1 2.</_></rects>
      <tilted>0</tilted></_>
    <_>
      <rects>
        <_>
          8 5 8 2 -1.</_>
        <_>
          12 5 4 2 2.</_></rects>
      <tilted>0</tilted></_>
    <_>
      <rects>
        <_>
          8 5 12 4 -1.</_>
        <_>
          14 5 6 4 2.</_></rects>
      <tilted>0</tilted></_>
    <_>
      <rects>
        <_>
          8 7 4 12 -1.</_>
        <_>
          8 7 2 6 2.</_>
        <_>
          10 13 2 6 2.</_></rects>
      <tilted>0</tilted></_>
    <_>
      <rects>
        <_>
          8 7 9 10 -1.</_>
        <_>
          11 7 3 10 3.</_></rects>
      <tilted>0</tilted></_>
    <_>
      <rects>
        <_>
          8 7 12 2 -1.</_>
        <_>
          8 7 6 1 2.</_>
        <_>
          14 8 6 1 2.</_></rects>
      <tilted>0</tilted></_>
    <_>
      <rects>
        <_>
          8 10 4 5 -1.</_>
        <_>
          10 10 2 5 2.</_></rects>
      <tilted>0</tilted></_>
    <_>
      <rects>
        <_>
          8 10 9 10 -1.</_>
        <_>
          8 15 9 5 2.</_></rects>
      <tilted>0</tilted></_>
    <_>
      <rects>
        <_>
          8 16 6 2 -1.</_>
        <_>
          8 16 3 1 2.</_>
        <_>
          11 17 3 1 2.</_></rects>
      <tilted>0</tilted></_>
    <_>
      <rects>
        <_>
          9 0 1 12 -1.</_>
        <_>
          9 6 1 6 2.</_></rects>
      <tilted>0</tilted></_>
    <_>
      <rects>
        <_>
          9 1 2 2 -1.</_>
        <_>
          9 1 1 1 2.</_>
        <_>
          10 2 1 1 2.</_></rects>
      <tilted>0</tilted></_>
    <_>
      <rects>
        <_>
          9 1 2 9 -1.</_>
        <_>
          9 4 2 3 3.</_></rects>
      <tilted>0</tilted></_>
    <_>
      <rects>
        <_>
          9 1 8 3 -1.</_>
        <_>
          13 1 4 3 2.</_></rects>
      <tilted>0</tilted></_>
    <_>
      <rects>
        <_>
          9 2 1 10 -1.</_>
        <_>
          9 7 1 5 2.</_></rects>
      <tilted>0</tilted></_>
    <_>
      <rects>
        <_>
          9 3 1 3 -1.</_>
        <_>
          9 4 1 1 3.</_></rects>
      <tilted>0</tilted></_>
    <_>
      <rects>
        <_>
          9 3 2 3 -1.</_>
        <_>
          9 4 2 1 3.</_></rects>
      <tilted>0</tilted></_>
    <_>
      <rects>
        <_>
          9 3 6 6 -1.</_>
        <_>
          9 3 3 3 2.</_>
        <_>
          12 6 3 3 2.</_></rects>
      <tilted>0</tilted></_>
    <_>
      <rects>
        <_>
          9 3 5 2 -1.</_>
        <_>
          9 4 5 1 2.</_></rects>
      <tilted>0</tilted></_>
    <_>
      <rects>
        <_>
          9 4 1 2 -1.</_>
        <_>
          9 5 1 1 2.</_></rects>
      <tilted>0</tilted></_>
    <_>
      <rects>
        <_>
          9 4 3 3 -1.</_>
        <_>
          10 4 1 3 3.</_></rects>
      <tilted>0</tilted></_>
    <_>
      <rects>
        <_>
          9 4 2 2 -1.</_>
        <_>
          9 5 2 1 2.</_></rects>
      <tilted>0</tilted></_>
    <_>
      <rects>
        <_>
          9 4 2 3 -1.</_>
        <_>
          9 5 2 1 3.</_></rects>
      <tilted>0</tilted></_>
    <_>
      <rects>
        <_>
          9 4 4 2 -1.</_>
        <_>
          11 4 2 2 2.</_></rects>
      <tilted>0</tilted></_>
    <_>
      <rects>
        <_>
          9 4 2 4 -1.</_>
        <_>
          9 6 2 2 2.</_></rects>
      <tilted>0</tilted></_>
    <_>
      <rects>
        <_>
          9 4 6 2 -1.</_>
        <_>
          9 4 3 1 2.</_>
        <_>
          12 5 3 1 2.</_></rects>
      <tilted>0</tilted></_>
    <_>
      <rects>
        <_>
          9 5 3 1 -1.</_>
        <_>
          10 5 1 1 3.</_></rects>
      <tilted>0</tilted></_>
    <_>
      <rects>
        <_>
          9 5 3 2 -1.</_>
        <_>
          10 5 1 2 3.</_></rects>
      <tilted>0</tilted></_>
    <_>
      <rects>
        <_>
          9 8 3 6 -1.</_>
        <_>
          10 8 1 6 3.</_></rects>
      <tilted>0</tilted></_>
    <_>
      <rects>
        <_>
          9 8 6 2 -1.</_>
        <_>
          11 8 2 2 3.</_></rects>
      <tilted>0</tilted></_>
    <_>
      <rects>
        <_>
          9 8 6 6 -1.</_>
        <_>
          11 8 2 6 3.</_></rects>
      <tilted>0</tilted></_>
    <_>
      <rects>
        <_>
          9 9 1 9 -1.</_>
        <_>
          9 12 1 3 3.</_></rects>
      <tilted>0</tilted></_>
    <_>
      <rects>
        <_>
          9 10 2 2 -1.</_>
        <_>
          9 10 1 1 2.</_>
        <_>
          10 11 1 1 2.</_></rects>
      <tilted>0</tilted></_>
    <_>
      <rects>
        <_>
          9 12 3 3 -1.</_>
        <_>
          9 13 3 1 3.</_></rects>
      <tilted>0</tilted></_>
    <_>
      <rects>
        <_>
          10 0 2 12 -1.</_>
        <_>
          10 0 1 6 2.</_>
        <_>
          11 6 1 6 2.</_></rects>
      <tilted>0</tilted></_>
    <_>
      <rects>
        <_>
          10 3 1 3 -1.</_>
        <_>
          10 4 1 1 3.</_></rects>
      <tilted>0</tilted></_>
    <_>
      <rects>
        <_>
          10 4 1 2 -1.</_>
        <_>
          10 5 1 1 2.</_></rects>
      <tilted>0</tilted></_>
    <_>
      <rects>
        <_>
          10 4 3 2 -1.</_>
        <_>
          10 5 3 1 2.</_></rects>
      <tilted>0</tilted></_>
    <_>
      <rects>
        <_>
          10 4 5 6 -1.</_>
        <_>
          10 7 5 3 2.</_></rects>
      <tilted>0</tilted></_>
    <_>
      <rects>
        <_>
          10 4 6 2 -1.</_>
        <_>
          10 5 6 1 2.</_></rects>
      <tilted>0</tilted></_>
    <_>
      <rects>
        <_>
          10 5 2 1 -1.</_>
        <_>
          11 5 1 1 2.</_></rects>
      <tilted>0</tilted></_>
    <_>
      <rects>
        <_>
          10 5 3 1 -1.</_>
        <_>
          11 5 1 1 3.</_></rects>
      <tilted>0</tilted></_>
    <_>
      <rects>
        <_>
          10 5 3 2 -1.</_>
        <_>
          11 5 1 2 3.</_></rects>
      <tilted>0</tilted></_>
    <_>
      <rects>
        <_>
          10 5 6 1 -1.</_>
        <_>
          13 5 3 1 2.</_></rects>
      <tilted>0</tilted></_>
    <_>
      <rects>
        <_>
          10 6 2 2 -1.</_>
        <_>
          10 7 2 1 2.</_></rects>
      <tilted>0</tilted></_>
    <_>
      <rects>
        <_>
          10 6 9 2 -1.</_>
        <_>
          13 6 3 2 3.</_></rects>
      <tilted>0</tilted></_>
    <_>
      <rects>
        <_>
          10 12 5 8 -1.</_>
        <_>
          10 16 5 4 2.</_></rects>
      <tilted>0</tilted></_>
    <_>
      <rects>
        <_>
          10 15 4 4 -1.</_>
        <_>
          12 15 2 4 2.</_></rects>
      <tilted>0</tilted></_>
    <_>
      <rects>
        <_>
          11 0 8 3 -1.</_>
        <_>
          15 0 4 3 2.</_></rects>
      <tilted>0</tilted></_>
    <_>
      <rects>
        <_>
          11 1 1 6 -1.</_>
        <_>
          11 4 1 3 2.</_></rects>
      <tilted>0</tilted></_>
    <_>
      <rects>
        <_>
          11 1 7 6 -1.</_>
        <_>
          11 3 7 2 3.</_></rects>
      <tilted>0</tilted></_>
    <_>
      <rects>
        <_>
          11 1 8 6 -1.</_>
        <_>
          11 3 8 2 3.</_></rects>
      <tilted>0</tilted></_>
    <_>
      <rects>
        <_>
          11 4 1 2 -1.</_>
        <_>
          11 5 1 1 2.</_></rects>
      <tilted>0</tilted></_>
    <_>
      <rects>
        <_>
          11 5 3 1 -1.</_>
        <_>
          12 5 1 1 3.</_></rects>
      <tilted>0</tilted></_>
    <_>
      <rects>
        <_>
          11 5 6 1 -1.</_>
        <_>
          13 5 2 1 3.</_></rects>
      <tilted>0</tilted></_>
    <_>
      <rects>
        <_>
          11 5 3 3 -1.</_>
        <_>
          11 6 3 1 3.</_></rects>
      <tilted>0</tilted></_>
    <_>
      <rects>
        <_>
          11 5 4 3 -1.</_>
        <_>
          11 6 4 1 3.</_></rects>
      <tilted>0</tilted></_>
    <_>
      <rects>
        <_>
          11 6 3 1 -1.</_>
        <_>
          12 6 1 1 3.</_></rects>
      <tilted>0</tilted></_>
    <_>
      <rects>
        <_>
          11 6 4 2 -1.</_>
        <_>
          11 6 2 1 2.</_>
        <_>
          13 7 2 1 2.</_></rects>
      <tilted>0</tilted></_>
    <_>
      <rects>
        <_>
          11 9 6 2 -1.</_>
        <_>
          13 9 2 2 3.</_></rects>
      <tilted>0</tilted></_>
    <_>
      <rects>
        <_>
          11 11 7 9 -1.</_>
        <_>
          11 14 7 3 3.</_></rects>
      <tilted>0</tilted></_>
    <_>
      <rects>
        <_>
          11 12 2 2 -1.</_>
        <_>
          11 12 1 1 2.</_>
        <_>
          12 13 1 1 2.</_></rects>
      <tilted>0</tilted></_>
    <_>
      <rects>
        <_>
          11 14 3 4 -1.</_>
        <_>
          12 14 1 4 3.</_></rects>
      <tilted>0</tilted></_>
    <_>
      <rects>
        <_>
          11 16 1 3 -1.</_>
        <_>
          11 17 1 1 3.</_></rects>
      <tilted>0</tilted></_>
    <_>
      <rects>
        <_>
          11 18 8 2 -1.</_>
        <_>
          11 18 4 1 2.</_>
        <_>
          15 19 4 1 2.</_></rects>
      <tilted>0</tilted></_>
    <_>
      <rects>
        <_>
          12 0 2 6 -1.</_>
        <_>
          12 3 2 3 2.</_></rects>
      <tilted>0</tilted></_>
    <_>
      <rects>
        <_>
          12 1 2 11 -1.</_>
        <_>
          13 1 1 11 2.</_></rects>
      <tilted>0</tilted></_>
    <_>
      <rects>
        <_>
          12 3 1 3 -1.</_>
        <_>
          12 4 1 1 3.</_></rects>
      <tilted>0</tilted></_>
    <_>
      <rects>
        <_>
          12 4 3 3 -1.</_>
        <_>
          13 4 1 3 3.</_></rects>
      <tilted>0</tilted></_>
    <_>
      <rects>
        <_>
          12 4 4 3 -1.</_>
        <_>
          12 5 4 1 3.</_></rects>
      <tilted>0</tilted></_>
    <_>
      <rects>
        <_>
          12 5 1 2 -1.</_>
        <_>
          12 6 1 1 2.</_></rects>
      <tilted>0</tilted></_>
    <_>
      <rects>
        <_>
          12 5 4 4 -1.</_>
        <_>
          12 7 4 2 2.</_></rects>
      <tilted>0</tilted></_>
    <_>
      <rects>
        <_>
          12 6 3 1 -1.</_>
        <_>
          13 6 1 1 3.</_></rects>
      <tilted>0</tilted></_>
    <_>
      <rects>
        <_>
          12 6 2 6 -1.</_>
        <_>
          12 8 2 2 3.</_></rects>
      <tilted>0</tilted></_>
    <_>
      <rects>
        <_>
          12 6 6 4 -1.</_>
        <_>
          12 6 3 2 2.</_>
        <_>
          15 8 3 2 2.</_></rects>
      <tilted>0</tilted></_>
    <_>
      <rects>
        <_>
          12 7 8 3 -1.</_>
        <_>
          12 8 8 1 3.</_></rects>
      <tilted>0</tilted></_>
    <_>
      <rects>
        <_>
          12 8 4 2 -1.</_>
        <_>
          14 8 2 2 2.</_></rects>
      <tilted>0</tilted></_>
    <_>
      <rects>
        <_>
          12 12 1 8 -1.</_>
        <_>
          12 16 1 4 2.</_></rects>
      <tilted>0</tilted></_>
    <_>
      <rects>
        <_>
          12 16 8 2 -1.</_>
        <_>
          12 17 8 1 2.</_></rects>
      <tilted>0</tilted></_>
    <_>
      <rects>
        <_>
          13 2 2 1 -1.</_>
        <_>
          14 2 1 1 2.</_></rects>
      <tilted>0</tilted></_>
    <_>
      <rects>
        <_>
          13 2 2 6 -1.</_>
        <_>
          13 4 2 2 3.</_></rects>
      <tilted>0</tilted></_>
    <_>
      <rects>
        <_>
          13 2 7 6 -1.</_>
        <_>
          13 5 7 3 2.</_></rects>
      <tilted>0</tilted></_>
    <_>
      <rects>
        <_>
          13 5 3 1 -1.</_>
        <_>
          14 5 1 1 3.</_></rects>
      <tilted>0</tilted></_>
    <_>
      <rects>
        <_>
          13 5 4 1 -1.</_>
        <_>
          15 5 2 1 2.</_></rects>
      <tilted>0</tilted></_>
    <_>
      <rects>
        <_>
          13 6 2 2 -1.</_>
        <_>
          14 6 1 2 2.</_></rects>
      <tilted>0</tilted></_>
    <_>
      <rects>
        <_>
          13 6 6 3 -1.</_>
        <_>
          16 6 3 3 2.</_></rects>
      <tilted>0</tilted></_>
    <_>
      <rects>
        <_>
          13 7 2 6 -1.</_>
        <_>
          13 9 2 2 3.</_></rects>
      <tilted>0</tilted></_>
    <_>
      <rects>
        <_>
          13 13 2 2 -1.</_>
        <_>
          13 13 1 1 2.</_>
        <_>
          14 14 1 1 2.</_></rects>
      <tilted>0</tilted></_>
    <_>
      <rects>
        <_>
          14 0 2 2 -1.</_>
        <_>
          14 0 1 1 2.</_>
        <_>
          15 1 1 1 2.</_></rects>
      <tilted>0</tilted></_>
    <_>
      <rects>
        <_>
          14 2 1 9 -1.</_>
        <_>
          14 5 1 3 3.</_></rects>
      <tilted>0</tilted></_>
    <_>
      <rects>
        <_>
          14 3 2 8 -1.</_>
        <_>
          14 3 1 4 2.</_>
        <_>
          15 7 1 4 2.</_></rects>
      <tilted>0</tilted></_>
    <_>
      <rects>
        <_>
          14 6 2 2 -1.</_>
        <_>
          14 7 2 1 2.</_></rects>
      <tilted>0</tilted></_>
    <_>
      <rects>
        <_>
          14 8 6 4 -1.</_>
        <_>
          14 8 3 2 2.</_>
        <_>
          17 10 3 2 2.</_></rects>
      <tilted>0</tilted></_>
    <_>
      <rects>
        <_>
          14 11 3 5 -1.</_>
        <_>
          15 11 1 5 3.</_></rects>
      <tilted>0</tilted></_>
    <_>
      <rects>
        <_>
          15 0 4 9 -1.</_>
        <_>
          15 3 4 3 3.</_></rects>
      <tilted>0</tilted></_>
    <_>
      <rects>
        <_>
          15 3 5 3 -1.</_>
        <_>
          15 4 5 1 3.</_></rects>
      <tilted>0</tilted></_>
    <_>
      <rects>
        <_>
          15 6 1 2 -1.</_>
        <_>
          15 7 1 1 2.</_></rects>
      <tilted>0</tilted></_>
    <_>
      <rects>
        <_>
          15 6 1 8 -1.</_>
        <_>
          15 10 1 4 2.</_></rects>
      <tilted>0</tilted></_>
    <_>
      <rects>
        <_>
          15 6 3 2 -1.</_>
        <_>
          15 7 3 1 2.</_></rects>
      <tilted>0</tilted></_>
    <_>
      <rects>
        <_>
          15 8 4 2 -1.</_>
        <_>
          15 8 2 1 2.</_>
        <_>
          17 9 2 1 2.</_></rects>
      <tilted>0</tilted></_>
    <_>
      <rects>
        <_>
          15 9 4 2 -1.</_>
        <_>
          17 9 2 2 2.</_></rects>
      <tilted>0</tilted></_>
    <_>
      <rects>
        <_>
          15 11 1 2 -1.</_>
        <_>
          15 12 1 1 2.</_></rects>
      <tilted>0</tilted></_>
    <_>
      <rects>
        <_>
          16 1 4 2 -1.</_>
        <_>
          16 1 2 1 2.</_>
        <_>
          18 2 2 1 2.</_></rects>
      <tilted>0</tilted></_>
    <_>
      <rects>
        <_>
          16 2 2 6 -1.</_>
        <_>
          16 4 2 2 3.</_></rects>
      <tilted>0</tilted></_>
    <_>
      <rects>
        <_>
          16 5 4 6 -1.</_>
        <_>
          16 7 4 2 3.</_></rects>
      <tilted>0</tilted></_>
    <_>
      <rects>
        <_>
          16 6 3 2 -1.</_>
        <_>
          17 6 1 2 3.</_></rects>
      <tilted>0</tilted></_>
    <_>
      <rects>
        <_>
          16 6 3 6 -1.</_>
        <_>
          16 8 3 2 3.</_></rects>
      <tilted>0</tilted></_>
    <_>
      <rects>
        <_>
          16 8 4 1 -1.</_>
        <_>
          18 8 2 1 2.</_></rects>
      <tilted>0</tilted></_>
    <_>
      <rects>
        <_>
          16 8 2 12 -1.</_>
        <_>
          16 12 2 4 3.</_></rects>
      <tilted>0</tilted></_>
    <_>
      <rects>
        <_>
          16 10 3 1 -1.</_>
        <_>
          17 10 1 1 3.</_></rects>
      <tilted>0</tilted></_>
    <_>
      <rects>
        <_>
          16 16 2 4 -1.</_>
        <_>
          16 16 1 2 2.</_>
        <_>
          17 18 1 2 2.</_></rects>
      <tilted>0</tilted></_>
    <_>
      <rects>
        <_>
          17 2 3 9 -1.</_>
        <_>
          17 5 3 3 3.</_></rects>
      <tilted>0</tilted></_>
    <_>
      <rects>
        <_>
          17 5 2 4 -1.</_>
        <_>
          17 5 1 2 2.</_>
        <_>
          18 7 1 2 2.</_></rects>
      <tilted>0</tilted></_>
    <_>
      <rects>
        <_>
          17 5 1 9 -1.</_>
        <_>
          17 8 1 3 3.</_></rects>
      <tilted>0</tilted></_>
    <_>
      <rects>
        <_>
          17 5 2 6 -1.</_>
        <_>
          17 7 2 2 3.</_></rects>
      <tilted>0</tilted></_>
    <_>
      <rects>
        <_>
          17 5 2 12 -1.</_>
        <_>
          17 9 2 4 3.</_></rects>
      <tilted>0</tilted></_>
    <_>
      <rects>
        <_>
          17 7 3 1 -1.</_>
        <_>
          18 7 1 1 3.</_></rects>
      <tilted>0</tilted></_>
    <_>
      <rects>
        <_>
          17 8 2 1 -1.</_>
        <_>
          18 8 1 1 2.</_></rects>
      <tilted>0</tilted></_>
    <_>
      <rects>
        <_>
          17 8 2 3 -1.</_>
        <_>
          18 8 1 3 2.</_></rects>
      <tilted>0</tilted></_>
    <_>
      <rects>
        <_>
          17 12 2 4 -1.</_>
        <_>
          17 14 2 2 2.</_></rects>
      <tilted>0</tilted></_>
    <_>
      <rects>
        <_>
          18 0 2 2 -1.</_>
        <_>
          18 0 1 1 2.</_>
        <_>
          19 1 1 1 2.</_></rects>
      <tilted>0</tilted></_>
    <_>
      <rects>
        <_>
          18 2 2 12 -1.</_>
        <_>
          18 2 1 6 2.</_>
        <_>
          19 8 1 6 2.</_></rects>
      <tilted>0</tilted></_>
    <_>
      <rects>
        <_>
          18 9 2 2 -1.</_>
        <_>
          19 9 1 2 2.</_></rects>
      <tilted>0</tilted></_>
    <_>
      <rects>
        <_>
          18 14 1 3 -1.</_>
        <_>
          18 15 1 1 3.</_></rects>
      <tilted>0</tilted></_>
    <_>
      <rects>
        <_>
          18 17 2 2 -1.</_>
        <_>
          18 17 1 1 2.</_>
        <_>
          19 18 1 1 2.</_></rects>
      <tilted>0</tilted></_></features></cascade>
</opencv_storage>
