<?xml version="1.0"?>
<opencv_storage>
<stage0>
  <maxWeakCount>30</maxWeakCount>
  <stageThreshold>-7.6498723030090332e-01</stageThreshold>
  <weakClassifiers>
    <_>
      <internalNodes>
        0 -1 45873 1.7483241856098175e-02</internalNodes>
      <leafValues>
        -2.9756536707282066e-02 6.8624013662338257e-01</leafValues></_>
    <_>
      <internalNodes>
        0 -1 51684 3.2828401308506727e-03</internalNodes>
      <leafValues>
        -1.1175569146871567e-01 5.7292348146438599e-01</leafValues></_>
    <_>
      <internalNodes>
        0 -1 4862 -2.2558378987014294e-03</internalNodes>
      <leafValues>
        3.9367270469665527e-01 -1.8369121849536896e-01</leafValues></_>
    <_>
      <internalNodes>
        0 -1 46926 -2.3053551558405161e-03</internalNodes>
      <leafValues>
        3.7548515200614929e-01 -1.9923187792301178e-01</leafValues></_>
    <_>
      <internalNodes>
        0 -1 74378 -6.1969603411853313e-03</internalNodes>
      <leafValues>
        3.5936346650123596e-01 -1.5433152019977570e-01</leafValues></_>
    <_>
      <internalNodes>
        0 -1 5694 -5.2213051822036505e-04</internalNodes>
      <leafValues>
        3.1538647413253784e-01 -1.6938775777816772e-01</leafValues></_>
    <_>
      <internalNodes>
        0 -1 6079 1.1195320403203368e-03</internalNodes>
      <leafValues>
        -1.7366848886013031e-01 3.2207480072975159e-01</leafValues></_>
    <_>
      <internalNodes>
        0 -1 51742 -8.1796981394290924e-03</internalNodes>
      <leafValues>
        3.5690852999687195e-01 -1.4074842631816864e-01</leafValues></_>
    <_>
      <internalNodes>
        0 -1 46927 -9.8323088604956865e-04</internalNodes>
      <leafValues>
        2.6875787973403931e-01 -1.5882128477096558e-01</leafValues></_>
    <_>
      <internalNodes>
        0 -1 59654 -1.4005128759890795e-03</internalNodes>
      <leafValues>
        3.0643984675407410e-01 -1.3462097942829132e-01</leafValues></_>
    <_>
      <internalNodes>
        0 -1 56055 1.0640481486916542e-02</internalNodes>
      <leafValues>
        6.7045509815216064e-02 -6.8842923641204834e-01</leafValues></_>
    <_>
      <internalNodes>
        0 -1 53643 -5.3461693227291107e-02</internalNodes>
      <leafValues>
        2.5594851374626160e-01 -1.4578314125537872e-01</leafValues></_>
    <_>
      <internalNodes>
        0 -1 2131 -3.5742325708270073e-03</internalNodes>
      <leafValues>
        2.9084438085556030e-01 -1.0947626829147339e-01</leafValues></_>
    <_>
      <internalNodes>
        0 -1 5306 8.4870337741449475e-04</internalNodes>
      <leafValues>
        -1.3417118787765503e-01 2.6952597498893738e-01</leafValues></_>
    <_>
      <internalNodes>
        0 -1 60262 7.8609008342027664e-03</internalNodes>
      <leafValues>
        5.1196955144405365e-02 -7.3499411344528198e-01</leafValues></_>
    <_>
      <internalNodes>
        0 -1 18140 -1.9320316612720490e-02</internalNodes>
      <leafValues>
        5.6131690740585327e-01 -6.5254166722297668e-02</leafValues></_>
    <_>
      <internalNodes>
        0 -1 36858 1.3235101476311684e-02</internalNodes>
      <leafValues>
        -5.6942176073789597e-02 5.6878691911697388e-01</leafValues></_>
    <_>
      <internalNodes>
        0 -1 17266 -6.3357232138514519e-03</internalNodes>
      <leafValues>
        -8.3357954025268555e-01 4.9966529011726379e-02</leafValues></_>
    <_>
      <internalNodes>
        0 -1 64770 -4.0163481608033180e-03</internalNodes>
      <leafValues>
        2.9376018047332764e-01 -1.4684517681598663e-01</leafValues></_>
    <_>
      <internalNodes>
        0 -1 77235 -5.5961683392524719e-03</internalNodes>
      <leafValues>
        -6.7075210809707642e-01 4.7485101968050003e-02</leafValues></_>
    <_>
      <internalNodes>
        0 -1 37507 -1.3229430653154850e-02</internalNodes>
      <leafValues>
        2.8295969963073730e-01 -1.1130805313587189e-01</leafValues></_>
    <_>
      <internalNodes>
        0 -1 77144 -1.3978129252791405e-02</internalNodes>
      <leafValues>
        4.7070425748825073e-01 -6.1885837465524673e-02</leafValues></_>
    <_>
      <internalNodes>
        0 -1 75914 1.4412162825465202e-02</internalNodes>
      <leafValues>
        -9.3902774155139923e-02 3.2875522971153259e-01</leafValues></_>
    <_>
      <internalNodes>
        0 -1 42266 -1.9055809825658798e-02</internalNodes>
      <leafValues>
        -4.2772772908210754e-01 7.6949417591094971e-02</leafValues></_>
    <_>
      <internalNodes>
        0 -1 59958 -1.2758166994899511e-03</internalNodes>
      <leafValues>
        3.3366116881370544e-01 -1.1862125992774963e-01</leafValues></_>
    <_>
      <internalNodes>
        0 -1 11322 -2.5615509599447250e-02</internalNodes>
      <leafValues>
        4.3065458536148071e-01 -6.9021910429000854e-02</leafValues></_>
    <_>
      <internalNodes>
        0 -1 7145 -7.9103410243988037e-03</internalNodes>
      <leafValues>
        -7.3290616273880005e-01 4.7018479555845261e-02</leafValues></_>
    <_>
      <internalNodes>
        0 -1 57402 9.4674323918297887e-04</internalNodes>
      <leafValues>
        -1.5293268859386444e-01 1.9804120063781738e-01</leafValues></_>
    <_>
      <internalNodes>
        0 -1 52713 3.0901048332452774e-02</internalNodes>
      <leafValues>
        -5.6208569556474686e-02 4.8569151759147644e-01</leafValues></_>
    <_>
      <internalNodes>
        0 -1 56361 -4.9426713958382607e-03</internalNodes>
      <leafValues>
        -4.7175130248069763e-01 6.9249674677848816e-02</leafValues></_></weakClassifiers></stage0>
</opencv_storage>
