<?xml version="1.0"?>
<opencv_storage>
<stage9>
  <maxWeakCount>88</maxWeakCount>
  <stageThreshold>-4.8288965225219727e-01</stageThreshold>
  <weakClassifiers>
    <_>
      <internalNodes>
        0 -1 51684 2.6114773936569691e-03</internalNodes>
      <leafValues>
        1.8507234752178192e-01 5.4108858108520508e-01</leafValues></_>
    <_>
      <internalNodes>
        0 -1 2738 -6.2835328280925751e-03</internalNodes>
      <leafValues>
        2.8082072734832764e-01 -6.0846801847219467e-02</leafValues></_>
    <_>
      <internalNodes>
        0 -1 30354 6.6536827944219112e-03</internalNodes>
      <leafValues>
        -8.9870862662792206e-02 2.2209876775741577e-01</leafValues></_>
    <_>
      <internalNodes>
        0 -1 40501 -1.1960614472627640e-02</internalNodes>
      <leafValues>
        2.2230918705463409e-01 -9.9447272717952728e-02</leafValues></_>
    <_>
      <internalNodes>
        0 -1 46926 -3.6481963470578194e-03</internalNodes>
      <leafValues>
        2.2676973044872284e-01 -1.1623308807611465e-01</leafValues></_>
    <_>
      <internalNodes>
        0 -1 42003 3.5380184650421143e-02</internalNodes>
      <leafValues>
        -6.6489063203334808e-02 3.5067355632781982e-01</leafValues></_>
    <_>
      <internalNodes>
        0 -1 66861 -8.6864987388253212e-03</internalNodes>
      <leafValues>
        2.4929782748222351e-01 -8.4912270307540894e-02</leafValues></_>
    <_>
      <internalNodes>
        0 -1 41687 -7.8400522470474243e-02</internalNodes>
      <leafValues>
        -3.2412859797477722e-01 6.4642183482646942e-02</leafValues></_>
    <_>
      <internalNodes>
        0 -1 58614 -9.6229165792465210e-03</internalNodes>
      <leafValues>
        -3.6531239748001099e-01 4.2152684181928635e-02</leafValues></_>
    <_>
      <internalNodes>
        0 -1 55495 1.6352556645870209e-02</internalNodes>
      <leafValues>
        -5.1150694489479065e-02 3.2263284921646118e-01</leafValues></_>
    <_>
      <internalNodes>
        0 -1 72006 7.3019303381443024e-02</internalNodes>
      <leafValues>
        -2.2606017068028450e-02 6.6333663463592529e-01</leafValues></_>
    <_>
      <internalNodes>
        0 -1 23927 -3.9980679750442505e-02</internalNodes>
      <leafValues>
        -6.2648504972457886e-01 2.8550198301672935e-02</leafValues></_>
    <_>
      <internalNodes>
        0 -1 5409 1.5809562057256699e-02</internalNodes>
      <leafValues>
        3.9001770317554474e-02 -4.5586675405502319e-01</leafValues></_>
    <_>
      <internalNodes>
        0 -1 1451 -4.4232453219592571e-03</internalNodes>
      <leafValues>
        2.1867397427558899e-01 -7.7937021851539612e-02</leafValues></_>
    <_>
      <internalNodes>
        0 -1 60622 1.1021653190255165e-02</internalNodes>
      <leafValues>
        3.4654524177312851e-02 -5.1571291685104370e-01</leafValues></_>
    <_>
      <internalNodes>
        0 -1 6197 1.2897455692291260e-01</internalNodes>
      <leafValues>
        -2.0634096115827560e-02 7.7592682838439941e-01</leafValues></_>
    <_>
      <internalNodes>
        0 -1 46926 1.3189017772674561e-02</internalNodes>
      <leafValues>
        -3.1008563935756683e-02 4.5613288879394531e-01</leafValues></_>
    <_>
      <internalNodes>
        0 -1 30158 8.0573186278343201e-02</internalNodes>
      <leafValues>
        4.5799672603607178e-02 -3.6444565653800964e-01</leafValues></_>
    <_>
      <internalNodes>
        0 -1 63502 -1.2115255929529667e-02</internalNodes>
      <leafValues>
        2.4030092358589172e-01 -7.1844667196273804e-02</leafValues></_>
    <_>
      <internalNodes>
        0 -1 36812 8.1663215532898903e-03</internalNodes>
      <leafValues>
        1.1454298347234726e-01 -1.7800496518611908e-01</leafValues></_>
    <_>
      <internalNodes>
        0 -1 42472 -1.6223458573222160e-02</internalNodes>
      <leafValues>
        -3.0239465832710266e-01 5.4017908871173859e-02</leafValues></_>
    <_>
      <internalNodes>
        0 -1 70986 4.9118039896711707e-04</internalNodes>
      <leafValues>
        -1.0767544060945511e-01 1.4274935424327850e-01</leafValues></_>
    <_>
      <internalNodes>
        0 -1 41737 1.3271501660346985e-01</internalNodes>
      <leafValues>
        -2.8136784210801125e-02 5.2804249525070190e-01</leafValues></_>
    <_>
      <internalNodes>
        0 -1 58564 6.3467947766184807e-03</internalNodes>
      <leafValues>
        3.3608894795179367e-02 -4.9870681762695312e-01</leafValues></_>
    <_>
      <internalNodes>
        0 -1 24510 -5.4706986993551254e-03</internalNodes>
      <leafValues>
        -1.8488892912864685e-01 8.9929528534412384e-02</leafValues></_>
    <_>
      <internalNodes>
        0 -1 31264 1.0473628528416157e-02</internalNodes>
      <leafValues>
        -4.1195180267095566e-02 3.9467942714691162e-01</leafValues></_>
    <_>
      <internalNodes>
        0 -1 60362 3.2397814095020294e-02</internalNodes>
      <leafValues>
        -2.2082621231675148e-02 6.0548710823059082e-01</leafValues></_>
    <_>
      <internalNodes>
        0 -1 29757 -3.3779942896217108e-03</internalNodes>
      <leafValues>
        -5.3113204240798950e-01 3.1907640397548676e-02</leafValues></_>
    <_>
      <internalNodes>
        0 -1 76262 1.3498449698090553e-02</internalNodes>
      <leafValues>
        2.3291481658816338e-02 -5.9991198778152466e-01</leafValues></_>
    <_>
      <internalNodes>
        0 -1 7623 -4.6432472299784422e-04</internalNodes>
      <leafValues>
        -1.6011452674865723e-01 9.1177821159362793e-02</leafValues></_>
    <_>
      <internalNodes>
        0 -1 76628 -3.7702829577028751e-03</internalNodes>
      <leafValues>
        -3.2745936512947083e-01 4.8123188316822052e-02</leafValues></_>
    <_>
      <internalNodes>
        0 -1 20874 -8.6058139801025391e-02</internalNodes>
      <leafValues>
        2.2439765930175781e-01 -7.2323188185691833e-02</leafValues></_>
    <_>
      <internalNodes>
        0 -1 77169 3.5529276356101036e-03</internalNodes>
      <leafValues>
        3.1339555978775024e-02 -4.8670199513435364e-01</leafValues></_>
    <_>
      <internalNodes>
        0 -1 3798 1.8722534179687500e-02</internalNodes>
      <leafValues>
        3.8701828569173813e-02 -4.1255465149879456e-01</leafValues></_>
    <_>
      <internalNodes>
        0 -1 4058 -1.8453281372785568e-02</internalNodes>
      <leafValues>
        4.7371774911880493e-01 -3.4280031919479370e-02</leafValues></_>
    <_>
      <internalNodes>
        0 -1 65456 -1.0713317431509495e-02</internalNodes>
      <leafValues>
        -6.9849026203155518e-01 2.4555964395403862e-02</leafValues></_>
    <_>
      <internalNodes>
        0 -1 5694 -1.3099899515509605e-03</internalNodes>
      <leafValues>
        2.3146367073059082e-01 -7.2486311197280884e-02</leafValues></_>
    <_>
      <internalNodes>
        0 -1 70923 -1.4263547956943512e-02</internalNodes>
      <leafValues>
        3.5023713111877441e-01 -3.9271701127290726e-02</leafValues></_>
    <_>
      <internalNodes>
        0 -1 22587 -1.7962068319320679e-02</internalNodes>
      <leafValues>
        -1.7144688963890076e-01 9.1455504298210144e-02</leafValues></_>
    <_>
      <internalNodes>
        0 -1 3536 8.7697774171829224e-02</internalNodes>
      <leafValues>
        3.1750056892633438e-02 -4.6400001645088196e-01</leafValues></_>
    <_>
      <internalNodes>
        0 -1 56356 -3.5628592595458031e-03</internalNodes>
      <leafValues>
        -4.3007519841194153e-01 3.4386668354272842e-02</leafValues></_>
    <_>
      <internalNodes>
        0 -1 52043 -8.4048591088503599e-04</internalNodes>
      <leafValues>
        1.5031257271766663e-01 -1.1977282166481018e-01</leafValues></_>
    <_>
      <internalNodes>
        0 -1 54660 1.7196511849761009e-02</internalNodes>
      <leafValues>
        -2.7587601915001869e-02 5.8382380008697510e-01</leafValues></_>
    <_>
      <internalNodes>
        0 -1 57999 6.2249734997749329e-02</internalNodes>
      <leafValues>
        -1.8267238512635231e-02 6.9100379943847656e-01</leafValues></_>
    <_>
      <internalNodes>
        0 -1 51750 2.1808322519063950e-02</internalNodes>
      <leafValues>
        5.4614380002021790e-02 -2.8224828839302063e-01</leafValues></_>
    <_>
      <internalNodes>
        0 -1 55047 1.6050629317760468e-02</internalNodes>
      <leafValues>
        -5.4690036922693253e-02 2.7196112275123596e-01</leafValues></_>
    <_>
      <internalNodes>
        0 -1 65282 1.7960038036108017e-02</internalNodes>
      <leafValues>
        1.8757116049528122e-02 -8.3921891450881958e-01</leafValues></_>
    <_>
      <internalNodes>
        0 -1 10737 -4.0003331378102303e-03</internalNodes>
      <leafValues>
        -3.3214861154556274e-01 4.0750306099653244e-02</leafValues></_>
    <_>
      <internalNodes>
        0 -1 17371 -1.4009028673171997e-02</internalNodes>
      <leafValues>
        3.0661663413047791e-01 -4.8893615603446960e-02</leafValues></_>
    <_>
      <internalNodes>
        0 -1 24230 -8.6052477359771729e-02</internalNodes>
      <leafValues>
        -8.1259679794311523e-01 1.9301926717162132e-02</leafValues></_>
    <_>
      <internalNodes>
        0 -1 3719 -1.7589587718248367e-02</internalNodes>
      <leafValues>
        2.8406286239624023e-01 -5.8207739144563675e-02</leafValues></_>
    <_>
      <internalNodes>
        0 -1 16540 7.8872859477996826e-02</internalNodes>
      <leafValues>
        -7.0105977356433868e-02 2.6229658722877502e-01</leafValues></_>
    <_>
      <internalNodes>
        0 -1 74999 3.3253154251724482e-03</internalNodes>
      <leafValues>
        -8.5735425353050232e-02 1.8217788636684418e-01</leafValues></_>
    <_>
      <internalNodes>
        0 -1 77581 1.1071974411606789e-02</internalNodes>
      <leafValues>
        2.8410200029611588e-02 -5.6195235252380371e-01</leafValues></_>
    <_>
      <internalNodes>
        0 -1 65968 1.2238196795806289e-03</internalNodes>
      <leafValues>
        -1.2028225511312485e-01 1.2670898437500000e-01</leafValues></_>
    <_>
      <internalNodes>
        0 -1 4706 1.3590136170387268e-01</internalNodes>
      <leafValues>
        3.2109677791595459e-02 -5.0157338380813599e-01</leafValues></_>
    <_>
      <internalNodes>
        0 -1 6402 3.8674165261909366e-04</internalNodes>
      <leafValues>
        -1.1798316240310669e-01 1.2668213248252869e-01</leafValues></_>
    <_>
      <internalNodes>
        0 -1 33198 -1.2973009143024683e-03</internalNodes>
      <leafValues>
        -2.3401798307895660e-01 6.4372010529041290e-02</leafValues></_>
    <_>
      <internalNodes>
        0 -1 39433 9.8132044076919556e-03</internalNodes>
      <leafValues>
        -4.1371013969182968e-02 3.5422253608703613e-01</leafValues></_>
    <_>
      <internalNodes>
        0 -1 47923 -6.7758560180664062e-03</internalNodes>
      <leafValues>
        -6.5039730072021484e-01 2.3679725825786591e-02</leafValues></_>
    <_>
      <internalNodes>
        0 -1 65738 -4.4445676030591130e-04</internalNodes>
      <leafValues>
        -1.3291029632091522e-01 1.0891345143318176e-01</leafValues></_>
    <_>
      <internalNodes>
        0 -1 4386 1.8647277029231191e-03</internalNodes>
      <leafValues>
        -6.6074982285499573e-02 2.1140915155410767e-01</leafValues></_>
    <_>
      <internalNodes>
        0 -1 77359 -1.3232636265456676e-03</internalNodes>
      <leafValues>
        2.3282304406166077e-01 -6.1698380857706070e-02</leafValues></_>
    <_>
      <internalNodes>
        0 -1 77416 2.6197917759418488e-03</internalNodes>
      <leafValues>
        -7.5498431921005249e-02 2.1154265105724335e-01</leafValues></_>
    <_>
      <internalNodes>
        0 -1 75988 4.1436992585659027e-02</internalNodes>
      <leafValues>
        3.3118557184934616e-02 -6.9766986370086670e-01</leafValues></_>
    <_>
      <internalNodes>
        0 -1 69655 8.3021912723779678e-03</internalNodes>
      <leafValues>
        4.1571017354726791e-02 -3.2966068387031555e-01</leafValues></_>
    <_>
      <internalNodes>
        0 -1 52332 -3.4776884131133556e-03</internalNodes>
      <leafValues>
        -3.2793095707893372e-01 4.4388595968484879e-02</leafValues></_>
    <_>
      <internalNodes>
        0 -1 17381 1.7413444817066193e-02</internalNodes>
      <leafValues>
        -7.5101822614669800e-02 2.1522264182567596e-01</leafValues></_>
    <_>
      <internalNodes>
        0 -1 62554 3.5283461213111877e-02</internalNodes>
      <leafValues>
        -5.0628546625375748e-02 2.6831185817718506e-01</leafValues></_>
    <_>
      <internalNodes>
        0 -1 77095 2.1685794927179813e-03</internalNodes>
      <leafValues>
        -5.9997782111167908e-02 2.4857711791992188e-01</leafValues></_>
    <_>
      <internalNodes>
        0 -1 71906 8.0954059958457947e-03</internalNodes>
      <leafValues>
        5.9058673679828644e-02 -2.8733205795288086e-01</leafValues></_>
    <_>
      <internalNodes>
        0 -1 48749 5.1882341504096985e-03</internalNodes>
      <leafValues>
        2.8632642701268196e-02 -5.2419090270996094e-01</leafValues></_>
    <_>
      <internalNodes>
        0 -1 33823 -1.7672944813966751e-02</internalNodes>
      <leafValues>
        6.5513193607330322e-01 -2.4118425324559212e-02</leafValues></_>
    <_>
      <internalNodes>
        0 -1 17522 1.0836917906999588e-01</internalNodes>
      <leafValues>
        -5.0501968711614609e-02 2.9574167728424072e-01</leafValues></_>
    <_>
      <internalNodes>
        0 -1 52044 -5.0261914730072021e-03</internalNodes>
      <leafValues>
        2.6155933737754822e-01 -6.1059962958097458e-02</leafValues></_>
    <_>
      <internalNodes>
        0 -1 14118 -1.3785039074718952e-02</internalNodes>
      <leafValues>
        -7.8963798284530640e-01 2.1770881488919258e-02</leafValues></_>
    <_>
      <internalNodes>
        0 -1 76214 8.6293095955625176e-04</internalNodes>
      <leafValues>
        -1.1121450364589691e-01 1.4768572151660919e-01</leafValues></_>
    <_>
      <internalNodes>
        0 -1 41861 2.3360021412372589e-02</internalNodes>
      <leafValues>
        -4.6501107513904572e-02 3.2583895325660706e-01</leafValues></_>
    <_>
      <internalNodes>
        0 -1 10672 1.1038690060377121e-01</internalNodes>
      <leafValues>
        2.5336833670735359e-02 -6.2007081508636475e-01</leafValues></_>
    <_>
      <internalNodes>
        0 -1 63924 -2.5147438049316406e-02</internalNodes>
      <leafValues>
        3.0681666731834412e-01 -5.2756946533918381e-02</leafValues></_>
    <_>
      <internalNodes>
        0 -1 72217 2.3662787862122059e-03</internalNodes>
      <leafValues>
        -7.6532915234565735e-02 2.0626179873943329e-01</leafValues></_>
    <_>
      <internalNodes>
        0 -1 10447 6.6001623868942261e-02</internalNodes>
      <leafValues>
        4.0549822151660919e-02 -3.8524827361106873e-01</leafValues></_>
    <_>
      <internalNodes>
        0 -1 6061 1.9745798781514168e-03</internalNodes>
      <leafValues>
        -4.4200167059898376e-02 3.1843456625938416e-01</leafValues></_>
    <_>
      <internalNodes>
        0 -1 29553 6.0096226632595062e-02</internalNodes>
      <leafValues>
        -2.4642260745167732e-02 5.2999818325042725e-01</leafValues></_>
    <_>
      <internalNodes>
        0 -1 54866 4.6074590645730495e-03</internalNodes>
      <leafValues>
        8.6886875331401825e-02 -1.8310599029064178e-01</leafValues></_>
    <_>
      <internalNodes>
        0 -1 45377 1.5202926099300385e-01</internalNodes>
      <leafValues>
        2.4829657748341560e-02 -6.2223660945892334e-01</leafValues></_>
    <_>
      <internalNodes>
        0 -1 78412 -5.9601146494969726e-04</internalNodes>
      <leafValues>
        1.6279147565364838e-01 -8.8880985975265503e-02</leafValues></_>
    <_>
      <internalNodes>
        0 -1 32294 -3.4877103753387928e-03</internalNodes>
      <leafValues>
        -1.3181979954242706e-01 1.2123265117406845e-01</leafValues></_></weakClassifiers></stage9>
</opencv_storage>
